function [y1] = NN_152param(x1)
%%% 15 parameter, arr1 and arr2 separately, trained on tiling library.
%MYNEURALNETWORKFUNCTION neural network simulation function.
%
% Auto-generated by MATLAB, 20-Apr-2020 00:35:16.
%
% [y1] = myNeuralNetworkFunction(x1) takes these arguments:
%   x = Qx151 matrix, input #1
% and returns:
%   y = Qx1 matrix, output #1
% where Q is the number of samples.

%#ok<*RPMT0>

% ===== NEURAL NETWORK CONSTANTS =====

% Input 1
x1_step1.xoffset = [0;0;0;0;0;0;0;0;0;0;0;0;0;0;0;-0.245490847501791;-0.408084828827863;-0.385396825396825;-0.531125005025934;-0.270166112956811;-0.31421702996282;-0.335645933014354;-0.303787878787879;-0.391283422459893;-0.325294415035984;-0.332188160676533;-0.373766289869681;-0.388010540184453;-0.32295008912656;-0.288002586097888;-0.333293518076127;-0.197651335121263;-0.286396355582402;-0.329545454545455;-0.314616755793226;-0.340674155638766;-0.281678857540926;-0.27449494949495;-0.307058159232072;-0.302513042513043;-0.291533493819006;-0.337599265635248;-0.289859383348227;-0.314616755793226;-0.238050061116752;-0.284025974025974;-0.256878600326876;-0.309579167635434;-0.327308970099668;-0.255759457933371;-0.297633794371594;-0.301243488866318;-0.295454545454545;-0.361818534023156;-0.31436712933174;-0.293034859876965;-0.257679738562091;-0.252272727272727;-0.238002735978112;-0.283002735978112;-0.294860441116471;-0.352495543672014;-0.30968253968254;-0.429023927808578;-0.335088897793072;-0.305158085488563;-0.32319863398296;-0.320220895375694;-0.435;-0.438218892667831;-0.332306440362706;-0.267265680056378;-0.442190354402631;-0.197763845350052;-0.337344028520499;-0.241336069311446;-0.327495543672014;-0.246434937611408;-0.297459893048128;-0.324652406417112;-0.237122634695941;-0.295187165775401;-0.294956028923197;-0.259563965446318;-0.256324294973116;-0.173525018732648;-0.237233865878367;-0.302894675656824;-0.287878787878788;-0.288800078170803;-0.312902315076228;-0.284090909090909;-0.307414500683995;-0.229067233300643;-0.267908902691511;-0.274732620320856;-0.190567746429815;-0.255373502466526;-0.296826265389877;-0.273669051255258;-0.265151515151515;-0.28015873015873;-0.239090909090909;-0.276566766566767;-0.207005347593583;-0.294003647970816;-0.18971250971251;-0.250528541226216;-0.317259461924305;-0.311746031746032;-0.288528138528139;-0.309313725490196;-0.213696401400576;-0.210373502466526;-0.261073109659637;-0.185050505050505;-0.26569406326737;-0.300497478533461;-0.237233865878367;-0.231699106407149;-0.267414500683995;-0.216217456882419;-0.236689142059986;-0.202828282828283;-0.240285923675344;-0.234222661396574;-0.235485287659201;-0.238235294117647;-0.246826265389877;-0.291889483065954;-0.184029304029304;-0.283211842876686;-0.244532279314888;-0.252225913621262;-0.223981432037698;-0.243373634038596;-0.164895960832313;-0.242438249313881;-0.260808285075221;-0.272727272727273;-0.227020202020202;-0.200956937799043;-0.259514363885089;-0.212490287490287;-0.251910299003322;-0.164895960832313;-0.203826393278008;-0.210243632336656;-0.190567746429815;-0.262420718816068;-0.169164904862579];
x1_step1.gain = [3.37931034482759;5.76470588235294;5.76470588235294;3.16129032258065;6.53333333333333;5.76470588235294;5.76470588235294;5.76470588235294;6.53333333333333;7;7.53846153846154;6.125;7;8.90909090909091;6.53333333333333;2.62059907338738;2.76057277454495;2.75079139831896;2.17019147575392;3.42227957533348;2.93544568153548;3.08125498909908;3.26001112724411;3.05883836138463;3.33414574234781;3.31319293971685;2.98861150933588;2.60373440861833;3.19114943571254;3.42607399134234;2.85235160094754;4.24787098079679;2.56691190359295;3.12887995025696;3.33709311843971;3.39543698501967;3.58713935202124;3.70919309071875;3.56993555559905;3.33492087134503;3.82488035112592;3.43624189950372;3.75679381035119;3.5350147140422;3.98872774408268;3.79841478084552;3.05218407217499;3.2162920910697;3.39218967949472;3.73821092228963;3.34517458396636;3.58100720273637;3.48622224298847;3.39538234538575;3.47310146986205;3.54454709910841;4.05802159232827;3.98029413385776;4.46756551035243;3.75054560869297;2.50217412170137;3.1163265913442;3.47995464720761;2.81739497269345;2.89106513068931;3.38287948616183;3.09183520777948;3.21103324213919;2.72362218471745;2.59803251867395;3.08519339843572;3.76063507342884;2.61559553748902;3.92896909750842;3.38911534178201;3.88720250436016;2.79099025888616;4.30298770531688;3.72262541558852;3.55429529977793;4.19512249440612;3.80761061843345;3.60293072421831;3.96317318128971;3.86241053948535;3.71358863904034;3.48718727249071;3.3700824588018;3.79527081100878;3.63541782705858;3.57915629428852;3.32776770648786;3.48884305272245;4.11738081068135;4.13594462572413;3.85225029326772;4.21571904137859;3.91155965289788;3.57700021569139;3.78399131917938;4.00623603871929;3.76427732359264;3.7569629860537;3.98344882601622;4.11562675562815;3.63273844643327;4.45260489000697;3.95126010834576;3.39295680151042;3.61393948085473;3.5303504204671;3.73828708956659;4.5453286101601;4.61298397321283;3.32243852145537;4.85740794368993;3.54044327686886;3.62186575519454;3.51543092451268;4.09630985177577;4.0039668679197;4.47619884216253;3.8431932879031;3.89026481715283;3.20639118527275;4.32716442242026;4.07265873029522;4.07922309091813;4.01626030636165;3.81811050275908;4.3410216925549;3.77808346159651;3.76010536612181;4.1686008153887;4.21957457574188;4.07329182089546;4.42182459219512;4.19778201986126;3.88110463928345;4.03129018431204;3.90126131771278;3.80729193774863;3.39869169089744;4.49237817154513;4.04127960899201;4.20016740178055;4.10542967891024;4.47069267688691;4.52776027963766;3.93673854914809;3.87879539135783];
x1_step1.ymin = -1;

% Layer 1
b1 = [-0.031779236117029839581;-0.065267617100299366029;-0.31762323799620678644;-0.12995821536826715481;-0.34648185456144675598;-0.12856745148108097987;-0.33316776979922796409;-0.049075527388852374644;-0.11551603008321191524;0.047473413638676568993];
IW1_1 = [-0.10353390860865094303 -0.15776745402462588608 0.10835454638670172223 -0.65459413316672276917 -0.05396337425365590329 -0.012399551647340224803 -0.18887108351545964235 -0.054774010525173971731 -0.18735464229554207871 -0.026441093101252161751 0.040268945086537340228 0.13491191840393637613 -0.040726585434798609486 0.078268308414642204229 0.067755112965987643325 -0.038078780413798668514 0.070489953204223632088 -0.14036382654837983863 0.39014721465446361437 -0.16348501885468560979 -0.1229610574037571652 -0.038521976870591757847 -0.10951971328839606168 -0.018975133423046419007 -0.17807331659362049536 -0.1848471894992953779 -0.065816058423272691402 -0.16550664855934615893 -0.12293259273096628081 0.024929301104930867011 -0.16922938153857106092 -0.075586103475072274893 0.062237141381753499636 0.06713768523382605824 0.0057303948350270724268 -0.13639015406179505474 -0.04384055458026545754 0.023336687168713628193 0.055774447261674200971 -0.10080832742813915226 0.04067512798842959354 0.043930024876537257517 -0.079210500561619684445 -0.032592611650654405853 0.017733719161338340475 -0.10385855541048015505 -0.0016918380201148990917 0.036337381124194850779 -0.052843703770066204062 -0.052366741347586204247 0.0051103003750326133833 -0.067039661400656494483 0.033754052823980126852 0.032166041787155867648 -0.069684124439207587032 -0.097245388212645750281 0.051281465020625582873 0.053508796780775101654 0.013186010168675906321 0.076311735256326881927 0.69818392512118787607 -0.13741721849081786622 -0.081584962471476174528 0.0019730302149130389371 -0.12451785658688974134 0.056340998659539301419 -0.03344304734016823738 -0.04276542616972117683 -0.12177634745861765087 -0.2403361674325698305 -0.11943326960410279025 -0.057156032224894418037 -0.16641809463694265392 0.15560520130851138165 0.00087987521572642946478 -0.051520839934658911596 -0.13806529829545349797 -0.012315946238390990466 0.11283781380126059468 -0.056870669756557731822 -0.0052219150850832717417 0.046659041008643133142 0.074807139255316110193 -0.013875519696084966798 0.071101685807263156902 -0.10153996539958175249 -0.030757376376132052054 -0.039077362880035118597 0.053335748781030985211 -0.094257950911579860276 0.016027877237700167978 -0.0051819389228125734004 0.016095814009748854456 0.071168314207010474615 0.072190104817731054476 -0.13055572734890028008 -0.021155770778363069268 0.060373063361890105805 0.064204712767196858714 0.096000341121949675505 0.04395132029525504469 -0.090510826739082311798 -0.065197978754623645004 0.14994496294479958687 -0.084337460751207890541 0.053930795717911615694 0.0075901673274200564395 -0.06953888188644506696 -0.08699394615477953896 -0.073774646939279389657 0.034785460749236107869 0.043697185919770467621 0.015391166636684345398 0.046521819992058711934 0.17035636927139072294 -0.048085136488198100546 0.096915521789654790474 -0.05878966479983881166 -0.00050252909381568247604 0.089355601990183719519 0.14553729028606904317 -0.018587290845369131703 0.10763110458999285146 0.10071535136352402495 0.040448283756819476686 -0.040325350456912691099 0.034191723811243468489 0.13362263757402101372 -0.060508004114098928872 -0.010006811199333463802 -0.0042940314446414757851 0.016120807286715874151 2.0866256852986037182e-05 0.10490337440269256741 0.11321587501547301924 0.071635457934184423867 0.016305059275875916081 -0.017217026025007558382 0.031821940879842282313 -0.034680825752473637413 -0.076842856327532099714 -0.047846504249434991529 -0.029758512492628265422 0.028125767277872044253 0.023386331593936462298 0.13153628099079725522 -0.030586080107017771246 -0.026737461929601746835 0.044768340297346102818 -0.033022146030148039064 0.020377153639970637528;0.075521840638382700672 -0.038253420451434407001 -0.0094905833049164969178 0.38055028914108185445 -0.022746892867272307248 -0.0287866774330149712 0.03092346678318901726 0.15999065232550863103 -0.15769785120023130376 0.073581199838290076154 -0.14175007957003418757 0.062840659773194362803 -0.047135800645187263258 0.17395274221077289267 0.18913750376212479232 0.02974226728065096359 0.0048042797056054940136 0.11261558908858013139 -0.26947662008949624379 -0.056157823547482471627 -0.10271656808768597768 -0.067832827835745027056 0.034557529715382263868 -0.065878266647371064302 -0.063301379969785590007 -0.15887520375169389419 0.02459707406012757655 -0.053279889343856086381 -0.0069668424434863639519 -0.039412599738394948901 -0.069116926762865779632 0.036325910929196680854 -0.013809329929627996505 -0.14630219638893976475 -0.1223914596893222323 -0.059369753817868992085 0.0015536440693523809013 -0.044283214430972057951 0.0080528520041512601652 0.03135521031399671199 0.014700285968306942008 0.010883240486325511734 0.14637617234873828709 0.037736390652987603089 -0.0118117792221725873 0.033397288040556284694 0.08120874248420907604 -0.10130601264489116908 0.13674718939006763607 -0.11215374871859470907 0.070366241927983103066 -0.030667922334722333422 0.0934109297254994142 0.064607289572352386009 -0.010804036508720719564 -0.07436921285581839236 -0.020022062409551674017 0.033751780250757340562 -0.043124969572627437631 -0.091410541436590220243 -0.040811736657316341481 0.041724751621738595531 -0.010486090449045377265 -0.093125351849251677971 -0.10887310247864261104 0.0057494134118440632861 -0.046310816528188414321 -0.14158963737279744999 0.028440711061918106523 0.0034070609616010378955 -0.12831255899149812683 -0.011494817539136415255 -0.082991596916020995978 0.26324227924250320765 0.046792207280353340093 0.013934808784124947181 -0.19699124802455295069 0.08774980882215635547 0.023790076230549763586 0.0024081460278786792975 0.033347695110268998908 0.087186032977895261409 0.00059668240202783904245 -0.039112244954531472096 0.12737184820135483143 -0.068300675572870006569 -0.054760878491074242713 -0.070654549201678476522 -0.070576668994641614252 0.0079936494916757888651 -0.032081869376275017058 0.12663690384556861024 -0.031858931024680479938 -0.019031763469524683174 -0.055323981260940291449 -0.059436528885906787789 0.10871710676958493136 0.063507674217439136211 0.10837301411311957289 -0.19357832794875193261 0.14135759093414862475 -0.012451748711079098711 0.07615376691099910722 -0.069741227514239167995 -0.069044094546537801427 -0.085899505542461909724 0.10487001586130016706 0.022663963510528038758 -0.1535142581724349975 0.040410675320687344803 -0.060944206584183112374 -0.019295003276032490075 -0.0079480967464440333003 0.047152521871344443838 -0.10539121575589550928 0.015743203130306877152 0.21297556206246792687 -0.1443201559973985304 -0.055927863934785278233 -0.079904498355431716194 0.075409147297229917051 -0.00035519671342883592452 0.028500686217357632662 -0.0058194846590518302387 0.096580362148374343523 -0.14947003876660813759 -0.088330077936321499399 0.015843948828313643429 -0.099504866220080312456 0.043890192522822737975 -0.14711543721839043242 0.12497364296489572866 0.11922508688728110371 -0.057513497854041438495 0.089247669595057824155 -0.024658102313165029817 0.074418746728226389808 0.07255948977447136683 -0.13514531567551546498 -0.062188803931909897305 -0.015775277904020539727 0.025372787208837274675 0.078509103422794560001 0.042859557045718872648 0.05262958878210394903 0.1118907973234351122 0.079461272053933135195 -0.043843860127302722307 -0.19125662840260179709 -0.071229817145080198681 -0.007286742790887945978;0.10146836807826063731 -0.070569716833690940283 0.038273469612452502842 -0.48302517528062882679 0.099603825713873092584 0.15508476652856273414 0.10426668689498104492 0.13326723361938139223 0.13329377196161970587 0.14742156160801206388 0.067992622324145574053 0.27935490573833432482 0.065379958790643441513 0.02840069949218085657 0.12194043430917296533 0.020036050573157358073 -0.10844613122636220792 0.029457590294322544278 -0.46670496678332840101 0.036493593242765166862 0.082942362215882109444 -0.019013777257709901097 0.1157369355265104871 0.10665446121059299345 0.11930913909287857444 0.090426060043218528528 0.030606576509086085708 -6.4165076193633155768e-05 0.05069709861271200213 -0.034688252935661974263 0.10424479931934184374 -0.037897877128283671833 -0.0041898031579452061496 -0.087274925218345192346 0.023861520525554364563 -0.0036457446087557110123 0.023458358869037625183 0.080073490184944084991 -0.088418218042056143102 0.077152485898063755121 0.056138135382572007526 -0.03974148137129148578 0.18358341817094184223 0.030828647743832655881 0.071784070606712088725 0.13548370052157029941 -0.031472703026650665492 -0.0047762905481540454677 -0.075894275925839083108 -0.034005328982330121357 0.069828989198094895685 -0.019176017636076122391 0.061182629829771337238 -0.055886397429514310387 0.054962354553158107584 -0.029788147175843784908 -0.066115825959957200131 -0.077224173374330379316 -0.10700603411896872363 -0.10916651784685856008 -0.62701617141293286561 0.1012430481024590434 0.018421964642282042529 -0.073589782818291149535 0.20428904355470317578 0.02581037047282519134 0.17150908932674513441 0.11845661478232935582 0.17069844550324392296 0.16892950526799541122 0.3561942471463706017 0.10249206687287246154 0.13182912174095526292 -0.046295249117205866662 0.018860248893941163745 -0.083676832270401443892 -0.02955575881814407127 -0.14354939569387079046 -0.065401505303517251666 -0.043130274618216599136 -0.11786773163991416669 0.0039974946243837138765 -0.10217193690207504453 0.014037983043756637608 0.037042253496177603156 0.025369597837635100845 -0.0098615793647314972659 -0.035604148549341789465 -0.039150442170198813951 -0.09511404136219789307 -0.0088084138965965983609 -0.13329062406390196349 0.059281580214733335665 -0.0059637382822583405104 -0.041450489411974884846 0.0061918588603992862768 -0.00076236067076461508808 0.018669559718305969026 -0.1053964338223835201 -0.059370023750695471998 0.015796974096891572975 -0.0046678433536764723025 -0.035677412001310325473 -0.11357787696306098635 0.029026407767952757538 -0.10137885543715507985 -0.020588382485928074378 -0.033748137428204184884 -0.13914029397055704962 -0.05542816802847880947 -0.082165599975141972999 -0.013028194771378528646 -0.0052625976280154243211 -0.090491406346314529063 -0.21556585863524177493 0.027020437025495384897 -0.096179368532919112811 -0.083851902235802744379 -0.014764405284846928573 -0.24153916752170945248 -0.2644031621552010991 -0.16392467305774766073 -0.047486314022677333924 -0.053515652649745039382 -0.016590318799966391472 -0.030799695089703042067 -0.15373542845687740432 -0.22907678639641596008 -0.021706262300146932087 -0.11634776073341809854 -0.010240522475953677678 -0.099867043436978483739 0.051549721897299206896 -0.050400116305476409806 -0.048796803683651336636 0.03317508131075944805 0.010223354291668694874 -0.036974223469831805911 -0.059690303126973480452 -0.12056302368504157041 0.012382535243419513782 -0.039158982599658935519 -0.10464950843347844978 -0.060258443040304525418 -0.055983662194071234786 -0.070371590526198665727 -0.10989242453792420762 -0.075937456170437039882 -0.075208654933696855727 0.038292552402304405601 0.0519656845892476002;0.41990247801834534869 0.12139031230743672907 0.040838127097980320146 0.55302983254202375818 -0.089373435346042029437 -0.093978799189300410433 -0.20984100001488489862 -0.25185541706473713042 -0.20631871069892329662 -0.2646718240416925938 -0.2056400398378801786 -0.16571377929256944639 -0.11176426920088580741 -0.059053510580617071812 0.061769889590009632863 0.040957500202650189147 -0.049156642624119339935 0.069911858087593842237 0.15010891038693724431 -0.047731343533433882864 0.0085786293677761991938 -0.076222998603658401184 -0.12373911667088456634 -0.013464638561634333785 -0.024338945292715241653 -0.096841556919081250854 -0.057960406699724256741 -0.15007542367035023312 -0.12732143103195853184 0.054115710305883454878 -0.062492587508308793109 -0.053355103268192781429 0.1037870188310702213 -0.032889289697523672873 0.079914485086853628837 0.16914055056492433016 0.11249289939998272092 0.028085090615010546017 0.030093080964104717417 0.052268941241102907791 0.030017367832728378968 0.040991101815738804903 -0.034727304054810233247 -0.060355847376850013664 0.0074693655875161264063 -0.18454302762555108153 -0.019343769192161908155 0.027577169494943973294 -0.012753838357063432621 -0.062663647181939827191 -0.31671831885983342536 -0.049325080886800189151 -0.045525381579621597428 -0.11199598491422901869 -0.014114580023384887611 0.075466380094239532417 -0.059686273575273701697 -0.11318555945637978621 -0.092715583298219383934 -0.020649558867783555233 -0.044708070630868283757 -0.090057408985437334414 0.0028163500189847118227 -0.014030190395183850596 0.13226894002879621692 0.07257565258748802095 0.042225724333165216839 0.014960466377362471521 0.13003426400888584702 0.019996483281256284548 -0.27151498264435453001 -0.017262113666185300437 0.03209377097579699939 0.065292715704859310977 0.20642431552613033086 -0.016647906548249231246 -0.0028070350683164625553 0.053533005610511733008 0.13873981072884103427 -0.0091290960550134813561 0.0033166914279126593831 -0.0030224807707272269633 0.093346906322447964488 -0.13317765301079437235 0.10741567292832530922 -0.0015436231159968042195 -0.029153611972270343511 -0.087627970840542204756 0.030608510054355199392 -0.063008637246559959233 0.00085157438798708735232 0.10565140745055819071 0.093720780936888709034 -0.079276973890773164144 0.057224625704923239022 -0.038412131549051813095 -0.14329604575994756011 -0.0017165719309720627473 0.087879712144911178995 -0.036815215773570546254 0.017197117946518500342 -0.059679252032348778512 -0.060223913380196635037 0.12853747562507705782 -0.10468557936971456535 0.14216584371760720984 -0.14041695854784713715 0.077952681930530093313 -0.06359559312549475929 0.050995932978995413276 -0.086681396271044000579 -0.061317712106212049483 0.056036449294330013815 -0.094729799278113466232 0.15587691605639311665 -0.08848875091296100337 -0.0073230039265670633306 0.066315625136181777233 -0.074604204837174420417 -0.0041524394499625003757 -0.044188009573393534357 0.011591748550346121782 -0.030435736316544132612 -0.19478957858572587547 0.037944825233005345655 -0.072236818379797229639 -0.11212932774058924357 -0.051864795993356561932 -0.097603438903918454672 -0.005051630906087600445 -0.034627828147636402489 0.052044277365781627109 0.11232105801158620562 0.074893388612922356939 0.099921042398686474306 -0.022759271239629612349 -0.067696141048150956787 -0.061449930691863108301 -0.00076497832394304017805 -0.021002328952481327112 -0.046276074468688033203 0.036355345486904035168 0.22479930409806886393 -0.034780646002257595284 0.021388759686000218679 0.10152156008739571247 -0.029404991222511656784 0.0015031817925563156334 -0.093288851502856123821 -0.20452773763542894669 -0.13599846895702064065;-0.037141682445808767155 0.056846069119519219981 0.036346499739663043482 0.073967640431757117336 0.080911392664676756725 0.23153045042917530516 0.034205873179331457157 0.22528517463590685965 0.025758318087809064373 0.051010496869163736433 0.021377797248617162046 0.011600352543124662838 -0.06721095418955597145 -0.0091109337764820746974 0.07268268190652206473 -0.19902320324421651776 -0.038330455846833373645 -0.24266687997492950024 -0.17977216283973726507 0.16211339517606906946 0.12713087557495039714 0.046366384820963287006 0.14445698885952834578 -0.17101614709686693838 -0.12606031250992991155 0.079690223869040066607 -0.064309171708219162178 0.12336910180663150649 0.14726811051987695467 0.11808899377361745109 0.085307008922304153331 0.072765486574653384655 -0.058391266719919177053 -0.15870712655271582148 0.033842430271330312119 0.071176578858845346298 0.093440074967220301816 -0.034275430221653309382 0.064948254638282673645 -0.065270902341797082391 -0.012357193357321888047 0.018242020224647416404 0.034527012380629683308 0.07810410213183278938 -0.039595694757418094245 0.058783609427649603785 0.088094007693810705284 -0.11886485173221680856 0.12924909814695778598 0.019866649338530429497 0.036831131346954766592 0.028555604238411785162 0.099933899339009812923 0.018019636900676601343 0.01081190771337142871 0.048066248287960598728 0.067649494514572583448 0.034101393999262930024 0.045277763559526215675 -0.036553390529554356803 -0.016611741794675453227 0.22386892570126012969 0.21603915981822155445 0.14886341023483087853 0.13161359974135994344 -0.21636172024693142713 -0.11039925251850954413 0.0044190090475915285925 -0.11587108254671933671 0.15086425626369062702 0.0013074067154002205066 0.085090977220828784011 0.18515184974962123343 -0.33618772026085008697 -0.15042575079652684145 -0.080640739864954888438 -0.287752901403656558 0.034489533513689552002 -0.15476804556076567687 -0.096033966094605197061 0.032709526240787066553 -0.17861584224383378339 -0.35297045369549684413 -0.045349410925704741748 -0.14307413231323118374 -0.03099184339719920217 0.003164160703062724421 -0.092345918290564224518 -0.0040708042094501966854 0.02955501816777950097 -0.053490701184490833942 0.044802430886882599337 -0.080835458418297409522 -0.16476784493301610546 0.025202166665946264951 0.04027127086102737924 -0.020755833968519217525 -0.086053874949853309539 -0.045783190933730309735 -0.081788405330613239697 -0.028316647858575148822 0.12411757903996648023 -0.17885626878167221188 -0.16432198261266903194 0.0061853222565248318007 -0.072901827805042035413 -0.0094577459499460593551 0.076712780986054870946 0.095610495710050383278 -0.013932326275258880011 0.053087497892443359648 -0.110828349929454964 -0.19966533273337283561 -0.037336383638873697766 -0.10646508851914852911 0.0035020399898893044 0.18062003443392835034 0.18949789749793546911 0.1295119926371665342 0.073019899437883575843 0.16819886842031644969 0.14582806537016274051 0.057983368594571781107 0.02660065201984204708 -0.013340696410905102456 0.0949941071790864483 -0.064142822035910818101 0.091103433035554945429 0.091029128177555040935 -0.0015909446747176504092 0.032215051385624596247 0.00014656628166337309156 -0.068907101172238763298 -0.15645203755537437362 -0.10493626273215884981 -0.033873215379516194434 0.058530357812234756754 0.035820459225675671533 0.030369646994600901779 0.048407207811884310489 0.089023887370777862738 -0.097168376622687735455 -0.23424730388429887418 0.010887496815973568207 -0.04210551864014241974 -0.11882638184338907561 -0.033446784247236807652 -0.10140381699539720295 -0.087722662563751177545 0.14015594571670939028 0.053616954077075701379;0.46301960908434042219 0.20549651135656910039 -0.067103675697718564996 0.069612946469298997432 -0.024243841930931833706 -0.038603711372044768879 -0.0088040245130634204457 -0.13472820769553373044 0.18618800097776019853 0.1400119601640227307 -0.024806705591069098255 -0.037800855738833974429 0.0079727796202751343574 -0.035781941753766720316 0.189374865747984511 -0.34898905883855363408 -0.012933846397803767936 0.063994474774416262863 -0.22039496566708596803 -0.03296000590396988561 0.085314681324339169954 0.076359241580121098303 0.035497058630576582006 0.07195392883358536773 -0.068976313711061443268 -0.00041007516045125772843 -0.046149821795990704498 -0.0068393151656635465738 -0.092789257122238816278 0.098516188744040264491 0.02842078462819487214 -0.033729257197961090564 0.10769436041769411827 0.24370321068049874413 -0.04814430609561413249 -0.015426211219081024592 0.14227226073922713545 0.17644978301070654569 0.024827761873646037732 0.043498575047123851089 0.044694624734646130892 0.20054084927696547158 -0.025394540360546641322 -0.028036858013733893802 0.085937146455362656283 0.1090580528003965155 0.035296239677220814235 0.027568346700016701373 -0.13765184179477601978 -0.10118126367879425043 -0.098914407321950420515 0.049185469302357488763 -0.060317727566044275489 -0.060878718286358900202 -0.045845025911874281999 -0.11985386009766328674 0.058482346771973295341 0.0091450934551347978774 0.0015483000732329759569 -0.023824973115809444657 0.21159725437392962188 0.048735358250116163348 0.0038309259080542999373 -0.0045248750309941450018 0.021898061734258768285 0.14201004881502043986 0.024943454979622602108 0.1003714245834513713 0.051823282712517793058 -0.029243947698544124625 0.039804227922427277975 -0.0058246666342376823833 0.060750797808318345028 -0.03827744303062829978 -0.056473720966990395564 0.0081094565787219897307 -0.0051720584398313963412 -0.081457622000499496639 -0.1456106607964327837 -0.10697332059200087562 0.07912914593792876039 -0.097276836431475097178 -0.024826885715341640015 -0.062297835227324620255 0.024804559687025967696 0.042020686605272965231 0.050737410989935567696 -0.036558563599238785846 -0.023015126034470676647 -0.15212475286396276442 -0.056513026564963181331 0.029354106105289011486 -0.047398947836599168715 -0.0056194890869581959336 0.044537995252029699556 -0.12994965754251891488 -0.022172766290822293334 0.13564777366435751271 -0.047365654928701872439 0.021574522327206451661 -0.0051925927452446613355 -0.052198301841665614709 0.046572276307513572891 -0.056181445650300761152 -0.047979894500835174043 -0.018209711522503599368 -0.0016905162692584538384 -0.088504568662876842433 -0.054454774935915592482 -0.018401218761106639954 -0.0003450183480926319172 0.11093321316672100085 -0.049007938887677404693 0.011473627521233629306 -0.029494991012861501711 0.014468798242594544876 -0.052481711616716254787 0.022562804882453008776 -0.0084308714311006963116 0.0095834193858510118708 0.051542709895168521694 0.035483764272169190934 0.012347067316697749387 -0.00080534682258841087683 -0.018767875514788898844 -0.020974897731754548608 0.033589609298362077539 -0.15758211032004129648 0.0075813959390091389956 -0.099119108357140273124 0.012294521678641333329 -0.019708849903833501604 -0.032039702785815096786 0.055048593466405372487 0.064339173100328203581 0.064627505114262240316 0.054407963348597494779 -0.028927738797015330185 0.043753629639444353849 -0.10592843748382989311 0.020037013399684177467 0.012516551446936715827 -0.10308388678527549698 0.050681993220830348634 0.038145408135422512186 -0.18472321461333224279 -0.02984589727501412923 0.034576071501943667075 0.11494104912389624396 0.07063448770607094751 -0.063128499093505777151;-0.55707387167911726067 -0.014206560888652578628 0.044045663441675014793 0.30853958410027754189 0.10801247902004389168 0.25053899406798119109 0.13289456473166019745 0.19583352356631739122 0.14862834357654838846 0.10710559011041859145 0.053685341655116666781 0.090165902763296321143 0.12182038924183795359 0.050155480302618710153 -0.012833741116702154089 -0.6210978892903514792 -0.056593138761265052161 0.1251720043350030287 -0.43650424811192761743 0.19559518988318699839 0.080115475996004492654 0.063058618543172254012 0.20388842061994033594 0.17024581441140931859 0.2373668978303627719 0.21577014104980762887 0.063017421714557181334 0.22383903117941439387 0.39457544706016722813 0.15872785490918012163 0.24230521102274157896 0.040512124337860715151 -0.00441380785900258657 0.12057995176086934441 -0.14565314061231593445 -0.10937919667466204643 -0.08865685194002567715 0.017105576913434349801 -0.0056100092712276306353 0.01426412307622619037 0.0132675310411552623 0.096053145427350022922 -0.073642244730657682728 -0.010551988147439300345 -0.0010836349341575477433 0.11770332613347950224 0.057952166640233990225 0.0027115514044060290422 -0.010747451836037855144 0.064443530630102774381 0.22347886628956034616 0.096261362718803131222 -0.083358753232425697455 -0.0062151934955131295929 0.031290610156321174706 -0.032695643398789192569 0.057664082223616519585 -0.052960023492533786493 0.029732558471754124557 0.015222848403268816539 0.10497803796589363912 0.011459311361297696424 0.056848638077743068875 -0.01195375855730895949 -0.047685662853372612346 0.027277320817059955149 -0.044118608141289990254 0.094606937028493667818 -0.077370386310065986102 -0.019914297277893643068 0.10908077908096318331 -0.075551459474145460371 -0.0026420528813765578775 -0.070675190771517126809 -0.18351773825233810844 -0.061828154081570697864 0.10392367058304034788 0.017773907019433470705 -0.12474121255828339583 -0.027852055249807314286 0.034823013122078465276 -0.083116756150500695211 0.0065653843228885228403 -0.041080954981717134056 -0.010470383315360501375 -0.053194850050921657636 0.065483197601678921895 0.050512201755812974335 0.088713626530138284254 -0.027286447275165850307 -0.013284647100293775143 0.023821079491978477266 -0.075117532941241640931 -0.037736500393401629927 -0.15423790428952457998 -0.07880780561295501474 0.12996867535858924736 0.099483273931682741908 -0.051002431605151068994 0.02563950513683247931 -0.079486039873803954192 -0.1371356833995390212 0.090047912978631336478 -0.041961874133953649957 -0.00058360504369306539455 -0.049189032619417191738 0.015041469726614804803 -0.035930866865296492985 0.042626988390930126149 0.071223532746640075275 -0.15501855940858424998 -0.049393564855306368311 0.012526523415128826625 -0.0044185725984420441345 -0.051775042757929184978 0.012388890805927494504 -0.054646966059783121106 -0.066922035468044482887 0.0015437956508134111251 -0.071196762815415787218 -0.0720072965243882257 -0.068849146952917411602 0.00078318475062216991785 -0.065526864078980048833 0.0043566930795404003318 0.07538969513088555896 -0.078822525138677448919 -0.090697243148949779901 -0.022776914798676665269 -0.029843146511989285252 0.026409733469568180686 0.035874328458352540416 -0.016258439523388689557 -0.057455204538641835299 0.032538868019630552697 0.13635649201654934104 -0.036854656841756455732 -0.018184394524914101327 -0.068768302415076365541 -0.0012105520634216396236 -0.012472679168279269396 -0.055235945911853587265 -0.15606607959311744049 -0.066743433749547984024 -0.0017724481851855804476 -0.024846819745251411821 -0.065214517777123157116 -0.044503354155118669822 0.01042067772421090277 -0.056708693637268083043 -0.065218265829813881762;-0.44500040171633231667 -0.027229382025724370442 -0.12467430166085570475 0.0097725589812253377264 -0.13657979309918935606 -0.066754955908457674907 -0.012182116519868788421 -0.0030698988366039893678 0.059575441680062735106 0.054826032105609233402 -0.17483084245521274269 -0.19259367148046507845 0.044600567148234425419 -0.00090849034616784674501 0.078501447786607045365 0.65682899347009582325 0.10898401941816167338 0.30759933019335183868 0.31127198321644394818 -0.035476720750036008778 0.025011077105181005881 0.11170107575704225911 -0.028512888028565840787 -0.0057904838098852421183 -0.02106102229945807161 -0.048335809608919477753 0.10551059971452360353 0.067266333118156287907 -0.30951219365875365375 -0.044326801974494615954 -0.26674503546021099964 0.015121918643091161738 0.063520184537034729555 0.11635630346173631011 -0.037792185306790467003 0.10264833016921513786 -0.036852381411924470256 -0.071529714634289323638 0.10197326721741455102 0.17788810840978902528 -0.011995756197141846031 0.006877216520968346819 0.034872367010104134144 -0.039923070628345255773 0.012601695295053540191 0.033120957958524370468 0.0040401563605779238983 -0.045769658002588517465 0.11711093662871605026 0.005759563511222954256 -0.04562616649644132133 0.061826885795316054162 -0.081438491283557026823 0.10936493078881449892 -0.036367205109488626169 -0.078277401312025193802 -0.016186877228112815652 0.16673783275934173087 0.0069442866096748323557 0.06611908069846429703 0.11953699274348983383 0.054284623357954545075 -0.02742769345528399752 -0.11462039056557109251 -0.16562994260534499857 0.16511440639253655016 -0.0070058475157721237375 -0.001599404692137576002 0.0053796229779760271206 -0.18771588784469267486 -0.25960794904510309244 -0.012855140890987123634 -0.29947578354034348758 0.18232385705403647558 0.09120403359212451988 0.06825739881608472448 0.15302167606573485736 0.0046342018080819859932 0.02955635187446575135 0.036346885188429482738 -0.01731983557137186866 0.073023846565355321481 0.21295112454253184442 0.099742391668923180426 -0.033940515988680287907 0.027653176981226362113 0.0036258659172895705072 -0.015791554277139664697 -0.07417470232903558558 0.011747172367314291999 -0.052116095092590609961 -0.00053702373565407701423 0.097300865702556652015 0.10733822556142429139 0.061242019903364371125 -0.00017944221135581092576 0.033671325271801652579 0.041081405719458882753 0.0010193871339820258486 0.071932428134941842068 -0.094317920606260555183 -0.021583120918757449369 0.065827208040482490525 -0.054080357713533887265 0.058677815992360403408 0.034295662271585238001 0.032148170464146481884 0.075194320397387048871 0.2158761330059854322 -0.075424585749130676482 0.042044864249099853093 0.081361043927721546365 0.018923812886200829658 0.050108546524248169518 -0.042051891129530970248 -0.036476668537201849263 -0.068279064638805522791 0.185526588220865013 -0.067334711091628932089 0.044283027132448055108 -0.065760853009401903924 0.055761808130145112949 0.02763298100650000283 -0.023002173923588182386 -0.0048185880837811854993 -0.074718862810270098018 0.11513261612630540376 -0.11645359759379665665 0.072898037688929273603 0.10291532591835471366 -0.0090372960825379176908 0.11971135112848560467 0.1679744717636524054 0.16244884931768679981 0.092402752937124008059 -0.013298251819399862714 0.11585930259818889854 0.022756344491903838373 0.032315600270922527348 0.035640842787442568451 0.070157421557110799526 0.073803848722811468686 0.1862081790977097584 0.056356910487335189208 0.10569584691701626455 -0.040835590578602122547 0.075100973991839986565 0.29906326227371760051 0.10727792225255537717 -0.0053964457957428463297 -0.016333008473323324533;0.34493924882892251782 0.2110178882950937973 0.22600898389277668254 0.070097500070656723614 0.092015352649527426543 -0.10627993673024883903 0.21267268747596118628 0.067968650263911620235 0.15010073638552839936 0.11697469246046110491 0.13733216936506592587 0.057612532896034553132 -0.049139598190017674817 0.0068249172108925107091 0.076541314443012750668 -0.16007657215892673319 0.057319389578984504541 -0.039361544932877037817 -0.34671054457747307875 -0.049768549227964857529 -0.16395641619243919718 -0.12240039678239829357 -0.060177047633521670023 -0.14555761404297989925 -0.079901596988654247089 0.075588889513513890517 0.10021514969610599566 0.061681621145765745673 0.1218103148544207176 0.017624009966770864261 0.37271234223430271815 -0.0078702943550125400995 0.021699267496579497522 0.14424722670542053371 -0.095171041174172882338 -0.013820414303826928509 0.01903067302255823795 -0.052962528114076340424 -0.11747269338137049377 -0.12394469454422517296 -0.097504249614037738492 -0.065253853585254747993 -0.062635430639394223951 -0.14621091615711073741 -0.028063534996253417658 -0.11159554669809505778 -0.10255906401775048697 -0.093731810590009359552 0.0022691445590371176616 -0.0041749090484527158831 -0.069928358457452988173 0.027795214967718813448 0.0053875283762683410724 0.056548036192636465247 0.075527984098276837455 0.11307526854701178964 0.038694036937397563447 0.12525244799718876498 -0.0014252454492392394557 0.035672076909196021033 -0.31994311094531702189 0.17273978866380909625 0.093667828598636621029 -0.19527597570667554194 -0.072613373151910076686 -0.0064465354057417854211 0.11348425526996866464 -0.0052042964254223429352 0.032200447650497975027 0.22578781918542495388 0.35482580595664620082 0.072889665479615617372 0.34756138963795613073 -0.13704197747014681963 -0.061858760376745466902 0.082483537185026017946 0.037948035628636016259 0.052934280350011714278 -0.043185561584067375107 0.058602195271402632293 0.14235795911171353345 0.00047611465666413862194 -0.054944624653610628362 -0.13369730534888571438 0.0061367563486896328784 -0.080294530746001166466 0.0037214668730696466234 0.033622233634645344591 0.11369795554779583979 -0.0086484110154145046878 0.06796897993547079686 0.2455878942951496835 -0.043653751223570930184 0.039607915129204848692 -0.043150427246281548854 0.0051852512394194921405 0.081251193046742928305 0.17549069284341817232 -0.13265683952971957238 -0.030566619166306246286 0.14142067583038600564 -0.0113873754699181165 0.083328890234325034281 0.18836255664420276101 0.047981042291446202031 0.034074648056536677165 0.12761603066754054203 -0.032000105855680499589 0.040191176694376946898 0.11831995403061450201 -0.014490217914902290761 -0.01881958717748815485 0.07991715637240418002 0.023692336287740072692 -0.052005769438816525085 0.094085171072600629061 0.17755728248597324459 -0.13957837350550234001 -0.03897475577325670848 0.0061634717100506556525 0.079896959410247936351 0.037549913034887742735 -0.10821100515733506064 0.20818143557522320042 -0.024379072638321189204 0.04977427388591401658 -0.021311272932393002244 0.10517933501738405133 0.015153060342369847197 -0.044447652020115267779 -0.10686650747185115484 -0.19387086063350461584 -0.06875080952711089266 -0.094039890296302372508 -0.076713760106321929322 -0.20913609053688064776 -0.26675430904609553906 3.8101562525091577701e-05 -0.10811281427875950312 0.044442073809775460569 -0.14004545564069470487 0.083503261555260596682 -0.10157020660689375369 -0.090694466354802535935 -0.00088024659349688434348 -0.12153102172412900972 0.052219192572950635933 -0.1439997873696327868 -0.12779256806871566732 -0.016414369299448786782 -0.1596660782148439095;-0.30068450313340949753 0.067056375962702585714 0.13064823423724902796 -0.17006072737997951494 0.1900252919667450302 0.14558860005789445169 0.19355852842332196828 0.14891150895124580233 0.14733330977831601838 -0.066470359342660725877 0.13925515185151848829 0.065805201322621673099 -0.041523954121236120174 0.12213528104127825691 0.20013777878443470004 0.17839612697157034016 -0.010973239669913297661 0.052761572959749758471 -0.022555660235702632704 0.047609640802183168795 -0.016479637768212870158 -0.042276888092334513614 -0.039918317793563681817 -0.096834092216799116937 -0.042544657616258529931 0.089219841539971631028 0.084706787743681469238 0.11477275167218110863 0.031093339867654924691 0.1747669730892431883 0.083654910177913252567 -0.083873611602213127281 0.16381975477887333881 0.052746060923075176186 0.040084995367079136186 0.15168677180999334819 -0.037495777021476897617 -0.10302808026245739714 0.071624235283065926239 0.033068709718717684276 0.02564136849265873791 -0.034713036298274373148 -0.060766108134105906169 -0.16464805740727508909 0.0063416237100631855581 -0.18340398907000368678 -0.056488421602053980053 -0.10134684757939149691 0.10445444419851285245 0.049533613648229300741 -0.16469168186483851279 0.03909305938634241584 -0.05029036728958171526 0.051913666082034938543 0.036962674831191477676 0.099314367634070574442 0.020606920535526106891 0.11673517310856149076 -0.074088282237719960133 0.15719743240899974879 -0.053231028857543966071 0.15154836510759506218 0.14663550978047565354 -0.19493869672621233491 0.022190892728193266359 0.10537110679176704686 0.12853975093513239636 0.18096090840411610534 -0.022858997638736281571 0.01360439067364509029 0.037510780634984780546 0.070853016494282369808 0.050634718331324372886 -0.10333402028255020411 0.061934123954145575697 -0.13657746041984447638 -0.0048819395800792043591 0.010194619132236570902 0.095664142341827490545 -0.049874964582191289031 -0.032539718279968217474 -0.077762679200800280399 0.051316145807033884674 -0.13165353773015264771 0.00046128704909082396575 -0.16844390695515984446 -0.020816712051974897713 -0.11134425790909280307 0.16849980597951524919 -0.14332332700857650098 0.014260462851885528923 0.15649614077289727976 0.16968593125488939943 0.010775331652133948376 0.059604741562885345252 -0.058840301124994782989 -0.038766743432800981894 0.1384049539995644007 -0.14366014810936247881 0.093706025827509059622 -0.077920312579987924262 -0.1572089310119390293 -0.15332968213383549316 0.20172137637974960067 -0.01253953648032218697 0.1616689849192977646 -0.096888520701854163875 0.077741991826763529039 0.19337670620917754571 -0.061762337183975134225 -0.12666131444014930296 -0.087893812982263341826 0.040557962341292108643 -0.11643137841996982484 0.049688545665449751487 -0.08915470797133456804 0.064928943187538140647 0.17284975400456492611 -0.073122173389814762445 -0.033873926647669902468 -0.14988261385830203842 -0.045123664163820166595 0.021023367007139272949 -0.032487875843226536599 -0.021265353087062177639 0.045381627056459712677 -0.17431190510915650638 -0.097264724568252886039 -0.012923768504396148521 0.015836448439370296587 -0.048978027728958595244 -0.059212327574136164321 0.19916419525826487003 0.088617044942637043792 0.080018759946211256984 -0.047387823481831528594 -0.18141405516018149768 -0.055222469497489642953 -0.020342749137949426436 0.063359948510036692704 -0.087358354629400156166 -0.046367166111449753529 -0.018035921741599941076 -0.14879918033733077753 0.061029336256536212413 -0.081540488038669894921 -0.15112020459610564505 0.056974936655512634087 -0.083344175629404673722 -0.19563970366065958073 -0.17825416260305010363];

% Layer 2
b2 = 0.098740402574027275051;
LW2_1 = [1.0427198832668980177 -0.86609060887110500548 0.95808692291961916609 0.95101005732397891901 0.80606096386766412643 -0.85902355760921678129 0.96112818201172278698 1.0184931184476879729 0.95551570565027676984 -0.90994628609174843525];

% Output 1
y1_step1.ymin = -1;
y1_step1.gain = 0.47088459101167;
y1_step1.xoffset = -2.04182913430642;

% ===== SIMULATION ========

% Dimensions
Q = size(x1,1); % samples

% Input 1
x1 = x1';
xp1 = mapminmax_apply(x1,x1_step1);

% Layer 1
a1 = tansig_apply(repmat(b1,1,Q) + IW1_1*xp1);

% Layer 2
a2 = repmat(b2,1,Q) + LW2_1*a1;

% Output 1
y1 = mapminmax_reverse(a2,y1_step1);
y1 = y1';
end

% ===== MODULE FUNCTIONS ========

% Map Minimum and Maximum Input Processing Function
function y = mapminmax_apply(x,settings)
y = bsxfun(@minus,x,settings.xoffset);
y = bsxfun(@times,y,settings.gain);
y = bsxfun(@plus,y,settings.ymin);
end

% Sigmoid Symmetric Transfer Function
function a = tansig_apply(n,~)
a = 2 ./ (1 + exp(-2*n)) - 1;
end

% Map Minimum and Maximum Output Reverse-Processing Function
function x = mapminmax_reverse(y,settings)
x = bsxfun(@minus,y,settings.ymin);
x = bsxfun(@rdivide,x,settings.gain);
x = bsxfun(@plus,x,settings.xoffset);
end