function [y1] = NN_sequence(x1)
%trained on tiling library
%MYNEURALNETWORKFUNCTION neural network simulation function.
%
% Auto-generated by MATLAB, 17-Apr-2020 12:45:08.
%
% [y1] = myNeuralNetworkFunction(x1) takes these arguments:
%   x = Qx200 matrix, input #1
% and returns:
%   y = Qx1 matrix, output #1
% where Q is the number of samples.

%#ok<*RPMT0>

% ===== NEURAL NETWORK CONSTANTS =====

% Input 1
x1_step1.xoffset = [0;0;0;0;0;0;0;0;0;0;0;0;0;0;0;0;0;0;0;0;0;0;0;0;0;0;0;0;0;0;0;0;0;0;0;0;0;0;0;0;0;0;0;0;0;0;0;0;0;0;0;0;0;0;0;0;0;0;0;0;0;0;0;0;0;0;0;0;0;0;0;0;0;0;0;0;0;0;0;0;0;0;0;0;0;0;0;0;0;0;0;0;0;0;0;0;0;0;0;0;0;0;0;0;0;0;0;0;0;0;0;0;0;0;0;0;0;0;0;0;0;0;0;0;0;0;0;0;0;0;0;0;0;0;0;0;0;0;0;0;0;0;0;0;0;0;0;0;0;0;0;0;0;0;0;0;0;0;0;0;0;0;0;0;0;0;0;0;0;0;0;0;0;0;0;0;0;0;0;0;0;0;0;0;0;0;0;0;0;0;0;0;0;0;0;0;0;0;0;0];
x1_step1.gain = [2;2;2;2;2;2;2;2;2;2;2;2;2;2;2;2;2;2;2;2;2;2;2;2;2;2;2;2;2;2;2;2;2;2;2;2;2;2;2;2;2;2;2;2;2;2;2;2;2;2;2;2;2;2;2;2;2;2;2;2;2;2;2;2;2;2;2;2;2;2;2;2;2;2;2;2;2;2;2;2;2;2;2;2;2;2;2;2;2;2;2;2;2;2;2;2;2;2;2;2;2;2;2;2;2;2;2;2;2;2;2;2;2;2;2;2;2;2;2;2;2;2;2;2;2;2;2;2;2;2;2;2;2;2;2;2;2;2;2;2;2;2;2;2;2;2;2;2;2;2;2;2;2;2;2;2;2;2;2;2;2;2;2;2;2;2;2;2;2;2;2;2;2;2;2;2;2;2;2;2;2;2;2;2;2;2;2;2;2;2;2;2;2;2;2;2;2;2;2;2];
x1_step1.ymin = -1;

% Layer 1
b1 = [0.045624468425451453202;0.020988242296170685902;0.017249932362241451184;-0.0022811524966203258584;-0.041992626718578195122;0.014241677648086207425;0.05237190590099786297;-0.057223782784445426097;-0.053956518244813470031;0.050546586895002972029];
IW1_1 = [-0.016889817726497724504 0.00042595362412696025686 -0.058176981898033254537 -0.016608090850495318969 0.0027207793693319833918 -0.011045040838248547724 -0.04497993090964101659 -0.037944744472340932728 0.024171695023479447539 -0.0084006185409641505324 -0.059974690082598161589 -0.047045323250816693805 0.017037963685507320766 -0.0088763523520653028059 -0.039871651265200695746 -0.059538896919135393671 -0.01769163987171954236 -0.023453725998092797567 -0.022290125243115639642 -0.027813445737968033045 -0.069360192150209581952 -0.039297624612082637796 0.018637648502386690991 -0.0012287685909945849586 -0.10676989833949533659 -0.092120672135375933354 0.059771230284987229842 0.047870403338982785157 -0.10417307703729888901 -0.083486084767453172528 0.021636761832885296336 0.074773463120957422978 -0.10371256347256253838 -0.093558033052657404993 0.051335857783957411504 0.054685801890366037004 -0.058391074576403703689 -0.037772531082313536011 -0.0013765694921819707566 0.0062912383000013616385 -0.0012824649748935930231 -0.022978703692876759068 -0.020663020352513980504 -0.046324747830611683053 -0.0062609008073966987765 0.0061087826256726891067 -0.080777707738847390195 -0.010319110930330926273 0.013745092164410482177 0.0060400122570669996167 -0.042648247728019034186 -0.068385793544356698881 0.00065949871203442296617 0.01611806955765603469 -0.049262018060701261157 -0.058764487059887113296 0.015717926287287849879 -0.0036040538453236160843 -0.060541899906530638464 -0.042820909386330804902 -0.05760114210870457413 -0.018402908194497909905 -0.022154583376859101479 0.0069096968291676181401 -0.088781166971773323171 -0.08798669687072997736 0.0083376734468216511659 0.077181253544786165843 -0.13788371907450164278 -0.11644209514320388865 0.071898823533622133186 0.091178053833185862542 -0.1170915085256682836 -0.1583274693622658269 0.13383379675167636491 0.050336244285358433537 -0.081788166279686894122 -0.09172131068915605201 0.045487481745489340146 0.036773058372450255493 0.0093891327683660874559 -0.095142843184852818328 0.017085167363215563591 -0.022580393797623009994 -0.068961704668072484892 0.085375911654186731337 -0.087356517986922690988 -0.020306625850094569413 0.11392881533329499155 -0.10085719558471573087 -0.042885484475786939118 -0.061435072123691342183 -0.11908401881429693525 0.12876915794901644396 -0.064151813564884502261 -0.036782262420738669195 0.099752793469245412683 -0.073869150670333144637 -0.058208301063924834662 -0.058924278585895488447 -0.062547890722925450491 0.045311003129929638966 -0.034384726537342986952 -0.039627322720561797276 -0.032670938721854177189 -0.080959183346467608611 -0.0063424795151326776588 0.028723664732551498074 -0.12411477622118240183 -0.099396980235898463318 0.054206755423520519566 0.078056064182654205652 -0.10097784054339754845 -0.15559214626552553273 0.08165597816469864767 0.083665071793322332017 -0.076497508258805357872 -0.12843803481862212101 0.07591595857714256157 0.037770647649391073108 -0.037913950387595984903 -0.088820104104592928485 0.021254255636093628834 0.014230862005199393372 -0.016633694162730760374 -0.01622795821023291854 -0.021574904813303919654 -0.036812379664635040688 -0.006182050386505494842 0.025395583336161584032 -0.0709255342581045084 -0.039536935542450420134 0.033591987977650006325 -0.0050069738470492099192 -0.078444997479215239355 -0.04138895350229294251 -0.0046769478047166352166 0.033688952128383638229 -0.051507540250145193717 -0.068753400924419602602 0.0095045214652429606261 -0.017001461340610840578 -0.033927858683640975401 -0.049824138291889419339 -0.042712396982486383612 -0.048401465249910270716 0.004993143198505498731 -0.005128217817013253077 -0.089292689162148899951 -0.07632017113474952319 0.031014550169531411583 0.043349373276462654925 -0.081756427826217739629 -0.10435545247162289484 0.049763703435211630033 0.045099240011731309141 -0.086951801185711136144 -0.090325611680592055031 0.053674298712838471037 0.032354177302564526841 -0.044717042898666549411 -0.052402999732030247637 -0.0033753687526051514949 0.0092464745324074872068 -0.032987267929339050831 -0.020249783495388216925 -0.029696379308219420651 -0.0083155061179590195747 -0.017314489556476648363 0.039899006830755485986 -0.077711529067816059735 -0.036121925057359199895 0.037985583683326204496 0.011489867723729613527 -0.076521986447584525171 -0.064202401810368389667 -0.0045710691335591295548 0.03617509946408739574 -0.050080094292940711964 -0.07277287288848954816 0.0017733679880631246766 -0.0091649083919106422158 -0.028335175892541641929 -0.055522220554507895063 -0.021537511047378769813 -0.018147611114108327945 -0.0048500746977975335225 -0.046713739991614842972 -0.01297190856815001736 -0.065819562245256549304 -0.0018662631874243708948 -0.010591202850065515456 -0.038475416804826835515 -0.048055346445624265439 0.011761978792345220007 -0.016480152392792161292 -0.034808012780073921411 -0.043798174879595377917 -0.018897545872678903067 0.0062547966814404760624;0.0090664126367904114556 -0.0081410259402426403408 -0.016926271517689477769 -0.025975599771209653688 0.017252305042350393055 -0.022872610160097599924 -0.00072611818209815078354 -0.035630061292523704242 0.0014452516036935162281 -0.026298228977579437421 0.010702811185827240323 -0.027826318404302975706 -0.029271343220937561663 -0.034563808656003523756 0.01479956775408750036 0.0070590995304878724828 -0.049507129080771122842 -0.045981465636785089079 0.031058240215257656297 0.022453869909930892351 -0.055684353066529385101 -0.042645438864202210583 0.025342952942367921731 0.031010354396010575417 -0.05825150817068568132 -0.039558472779756742588 0.0084194048688608583847 0.047414091489217075059 -0.034509820508938041095 -0.01807493518486108855 -0.0090706443592243855834 0.019678915460642071311 -0.008962537801167220694 0.010127866471663698675 -0.032761518530385752568 -0.010380294732481172917 0.016836033569946298738 0.020293287769722157671 -0.04977556832608470011 -0.029330237605940421425 0.031053910916205001297 0.028692394246868140051 -0.054316786933125610348 -0.047406002822301451793 0.032507016281365423704 0.015148200880513508146 -0.036426354263669469269 -0.053205347490580215397 0.0079672491933130366176 -0.0019949080769333053104 -0.0098055494820268127715 -0.038143276226716642252 -0.011594987646474401097 -0.032568844603163692175 0.018197019240315248645 -0.016009671583025984754 -0.042914135505068562448 -0.044950214778279887207 0.03811591971056354361 0.0077719459804477765072 -0.057150821678279610516 -0.060199358696069099617 0.047866763559379993387 0.02750693222259561338 -0.078475412488134235756 -0.033674162235526147735 0.02138139185842194423 0.048791698272880268394 0.0073206483508570750762 -0.071356289479740181436 0.015481083578134331724 0.0065780729583859989459 -0.061725459834720740326 0.034371339928764697846 -0.03430294887816433963 0.01968058419178375304 0.027088413661993167303 0.0049496853908159894886 -0.048238360839818132664 -0.025776222805341204858 0.015914169576968239389 0.048636022828568478693 -0.063205192638668125649 -0.043321484359246237306 0.051774212462706740989 0.013692302621991062767 -0.054374049552153892739 -0.0530689501248907472 0.0073516576751723313951 0.026848942417934191368 -0.034446828424388654943 -0.04173025626108785302 0.025534525510989121433 -0.03209141753445758638 0.0042544663671205008165 -0.039674058936023812172 -0.039535453753888498418 -0.03594037166323943433 0.036732224331581339594 -0.0032328835068031447873 -0.047464924133644663395 -0.068295376742563668193 0.04895971146687452813 0.024824104816977551197 -0.062743369318525213374 -0.053705108180202347501 0.040229782094225660649 0.034242210812125403741 -0.056186530128221147395 -0.041667737822250069946 0.022356181791975432427 0.033521601566130203309 -0.043148605260136578543 -0.0029779744947540961846 -0.01887027958790272672 0.023020374750429041522 -0.0068139441047493937847 0.012360750858287814294 -0.044617664091949074678 -0.002905627253934746964 0.014936145084262152441 0.032468789457161799372 -0.055709391906332846045 -0.033672027227452841491 0.039012495877954987689 0.028864007086097358962 -0.061933028162235080616 -0.047919959394174642398 0.026815793869664220073 0.024533123138129591528 -0.043948098705490080962 -0.049377302894671827593 0.010808671953838527857 -0.010886114874837213642 -0.0061968819032155210424 -0.035702159768140132035 -0.020453258787659935741 -0.041524490309693719292 0.025478038920323020644 -0.0054767744153455949485 -0.042014457740900748584 -0.059199927327518005182 0.038986103178387916668 0.020251797297673412163 -0.052899186896969520311 -0.065924467986983495416 0.041553395713913678089 0.035293774577667573478 -0.047065020697302110964 -0.05754988708362164529 0.027669871911854111712 0.034968551276689192886 -0.039441447744555512001 -0.019241224154142016339 0.0026462338013355565097 0.014059953505002961358 -0.0093506619359021991844 0.0021455182283773707383 -0.028651299944128180014 -0.00612004094072422615 0.0089206771008822332431 0.024624283369076276767 -0.053023628202841947832 -0.022497816859480761209 0.019249873629434886835 0.035372023511325248468 -0.050493057278560612988 -0.046105324454580778881 0.018206584512738602927 0.034827487057122206993 -0.044590544300967920044 -0.050420011861232419403 0.014865364607139133074 0.0048391876479347241055 -0.018967354964684095264 -0.042713681882741910689 -0.0074350801680479819411 -0.023372174596770118465 0.0022960969534466541681 -0.013465326780971354978 -0.031075259715934593768 -0.042991083717736196246 0.030794158543289276708 0.0012957002979847524315 -0.041374040479077354993 -0.053433666786449021679 0.036297140263038873975 0.016534082410139452207 -0.035668320162741927459 -0.052519204465435453955 0.027828775138278114692 0.018382264897539277865 -0.031911778786594638402 -0.028367076206311313269 0.0092333464677500313306 0.0090690239328044784661 -0.025234467294085325545 0.002845210284083295009 -0.031072940076381876801 0.011485712494032530515;-0.022512749744883688019 -0.012269627978918225958 -0.016699437178617049238 0.016981950177907871591 -0.017007288167795026751 0.0084379097664259144346 -0.036121111923692501844 0.01019062560055727408 0.0027027513247169692237 0.016596130370712777052 -0.033089637671892310755 -0.020709108747998326849 0.034543729996409297534 0.014229959924887524564 -0.037765404792726914307 -0.045508149853082581482 0.027926759403948425708 0.024361214004610255712 -0.029619626709258810998 -0.057168211423830911366 0.025196686545201598534 0.011431237508124336352 -0.019572362789252544663 -0.051555425988575230567 -0.0089513529836138302359 -0.012884701714284595153 -0.00020172392952191338508 -0.01246208609709533767 -0.02618407934643949414 -0.038609025270214869519 0.026783511895313485973 0.0035097279968796172948 -0.056620744832425545789 -0.035254258661900322869 0.029321342127055994436 0.028053796642780140513 -0.058305421873034543601 -0.046425669432981299389 0.020697890054839171436 0.049533336526685643741 -0.056471035102416064499 -0.032081359161429831572 0.0089812344869886397841 0.045071295052328722019 -0.027423068039576167093 -0.012575551423016794253 -0.020074503906317021917 0.025573258644390736705 0.0014578522967019491834 0.0094535747842433414528 -0.037692168245499146906 -0.0077191235599430533393 0.024792014503382479168 0.021852921529672844625 -0.032132774388724548442 -0.049012026368808303545 0.042671199453067430729 0.031883999328843115606 -0.036288840219066823001 -0.072766223287326528557 0.043220176262599094286 0.0040797823804647930304 -0.014330946781272810991 -0.067468876586303780374 0.0033930922693402617955 0.011824733760817359232 -0.0047432672478269887612 -0.044974423506805721873 0.048050379787375335772 -0.080288460624162893975 0.031954911290555311487 -0.034216695178265671418 -0.087613395509713462572 -0.0049098239999597849056 0.025310921844514153167 0.032712432940643187962 -0.048945765485026083985 -0.049995815303498482296 0.030674805329381486796 0.033766910734649616121 -0.069874268816366616464 -0.018239562041142739351 -0.0022953120676458917994 0.055909278200659710822 -0.016872504688707663789 -0.036049065973600018242 -0.0093304202367968103182 0.027752126174588390844 -0.040441511362980867017 0.043606280361376821564 -0.044978022219443289376 0.0073133884965831067598 0.049023857111751639737 -0.00079893557603516766538 -0.047630416490704818866 -0.035094369769510989909 0.012115256868777523475 0.04872761343609369189 -0.038307927816546828714 -0.05703480721280733412 0.065397814032410267471 0.0051139623397465777677 -0.038251737627587045765 -0.066759903469059911352 0.020622772212607869829 0.0098675318834191266121 -0.0074065528988635125421 -0.057583615921630124102 0.011427953124588172487 -0.0303922894984160058 0.01516990949281074065 -0.030705437843449746166 -0.033352440382900833127 -0.033162770826320360495 0.027481166752523718266 0.0045341797321972491727 -0.048409147973096706974 -0.043293790370666829226 0.029413185051321628916 0.027789888567955757515 -0.056088692750426404066 -0.034225617386621463856 0.0088994393030534784533 0.046915006109510846988 -0.044654139785072093083 -0.020123978320997753383 -0.011920626590739115749 0.042198879972300880337 -0.029822208509189578746 0.0031676926046398717549 -0.025530554178488075456 0.017685205358549092175 -0.0012484936064336674306 0.017868528375675783726 -0.041811445255011542299 -0.0093084542387666339286 0.021589320497295103052 0.028618152929870525197 -0.043473921511045419963 -0.041233416640593850699 0.02870579952229650178 0.039294311719289272411 -0.047785078170649669671 -0.05471489779541171411 0.03211499757595892568 0.014272992178130293472 -0.034225840448609858024 -0.04666201402996662112 0.015190687931170966316 -0.0089516557654910917236 -0.0031260796388756905556 -0.037612817251289239195 -0.020963984896900007132 -0.029847854858795080241 0.026788250545130364022 -0.010476275513978136264 -0.038599091299921187148 -0.058840024440041563403 0.05166283959374542295 0.011276411421715920938 -0.049940116694606372094 -0.055571253656066875448 0.036453713619982119898 0.034557792006182759537 -0.046529760193221726683 -0.034779734854977838177 0.015736672876323198195 0.031072957447372703127 -0.026128921520638857812 -0.027769269944975624731 -0.0040756197660493992049 0.023473946507167345321 -0.015068876852474055034 0.0096008187922387334956 -0.036937534950574411885 0.0079057282862875482427 0.0097708898713366049149 0.019497675530442935138 -0.048026403616769394733 -0.015742026509517982602 0.022935864800684300363 0.028431144844961075274 -0.04530410749028355305 -0.040562766879820043309 0.026399365929781419549 0.017210908463271203106 -0.030532837912058206908 -0.047577301205497406211 0.01585382114060691558 -0.0032753480411334295365 -0.0021562301464029317438 -0.04492210767756763673 0.0027772765683985031412 -0.023841772959232676588 0.013174020666906914936 -0.026609389000585157575 -0.0022198334381332007759 -0.038281784349335698514 0.016410588921124107803 -0.010408835858118158091;0.025374047633740584584 0.0053015249079780921854 -0.0030827841900163389065 -0.023030483358463135074 0.037370320700696700589 0.013903976924540369792 -0.012261944695667813601 -0.034450047936354470657 0.043154657071263195778 0.02960967306604405172 -0.034009500494320644981 -0.03419252464975518907 0.023391249973920745509 0.040152608206138057367 -0.031709333899209983521 -0.027272219287617863875 0.01926592548770161839 0.010093477170908173035 -0.0035741933260588372966 -0.021222904339353705627 -0.017983087113214189789 -0.019634865316712234173 0.02542717139599049922 0.01675308602718302009 0.0024668025458796810113 -0.018758093809367163557 0.025861954867782473849 -0.0050083586110398793656 -0.018426773315713750739 -0.018319810349938833727 0.028688873199002113551 0.012620015459867494831 -0.0017787174357898160974 -0.018801613521565684745 0.0062587019226208332259 0.018883934027958980406 -0.0078402057481179801557 0.0082663314271521470128 -0.0023945104963879627197 0.0065306898105955491288 0.024887242188026872242 0.022266291177527326728 -0.028051501183256978555 -0.014539727189040872052 0.040691543131260179966 0.034339456725057018738 -0.014980994913447853029 -0.055487699949653662701 0.057543223437919392704 0.044030645262139733731 -0.053387459651509955316 -0.0436241040553141321 0.0447029066819225121 0.048947867799077962592 -0.046432651084005620301 -0.042655818403731636523 0.028649179120304443802 0.0013648930604882949808 -0.011662019932691291418 -0.013789747254856429132 -0.0053029775477045270823 0.0099351468862693553818 0.0061993414993996636894 -0.0062692058447305814076 0.049426892786780404765 -0.081057677234966013513 0.050434094408216834093 -0.01424100496679842065 -0.2437103455790100015 0.17034067310053652156 -0.017722989302956067975 0.095654966774626662418 0.12233377427997133013 -0.1129453260224710931 0.028106741659156168206 -0.032932884923448611791 -0.045411641559093114673 0.037034772672823478012 -0.01189595751249336586 0.024835131392006742912 0.031264436048756581721 0.0089044214590669780451 -0.012409233082998216355 -0.023197319431568261261 0.023420363971515548163 0.041579789810845875497 -0.02311921046721829992 -0.03731863832190263075 0.054316323574572611399 0.054311943401253053032 -0.044883570337652882454 -0.059182391644953126486 0.069080463856970808489 0.042127413676679395516 -0.051513642491962607917 -0.055131930048467121808 0.035718909446148632003 0.045697655549704126188 -0.041414591290172504678 -0.035439668712439649501 0.014259724433589037601 0.014780353890257938096 -0.0078361356805386299385 -0.016641637650080632477 -0.01127576313422796149 -0.0080564617589472132392 0.022557792730462961073 0.0013367371559453665973 -0.0078778754787873373627 -0.01973155396419284946 0.013508319265115316388 0.018663415171111717716 0.0062130777588369542203 -0.039353158090777669298 0.029606582338356710049 0.0080958029868324447864 -0.0096636561815135434139 -0.011031234285159131556 0.0184374643870496846 0.0068197310728586374093 -0.006857389204025064397 0.00029079139428909842914 0.0028875186567147823231 0.0082413841462706770302 0.00048498654966476538539 0.023503955384868026324 -0.0073545920679588339466 -0.012072044873342104021 0.045970881192291652984 0.030871487134747081088 -0.040962593098992958196 -0.03131747023481786657 0.037574812846570410096 0.060837270315879286853 -0.042912773274712198712 -0.050937004894501917984 0.049213483248897932354 0.045238603349387090935 -0.058601621019303981597 -0.031288160585753628518 0.02372433468389173114 0.025909196608612707763 -0.0089861903659657019899 -0.036085035933287663845 0.0027500017039157617985 -0.0011180795484306972447 0.022656897892002984124 -0.019726515054260890941 -0.017044845147021616544 -0.016760883851716076864 0.029088061351034637247 0.009279972640926725802 -0.019349525048655148718 -0.040316209979284700626 0.027983736211207390493 0.036244303809965516816 -0.032183812358133043197 -0.018615791138026260149 0.016135508701255636688 0.039226399788140180191 -0.014350078224191358672 -0.00990733614826269475 0.0097628744348926769364 0.019056844930793188919 0.013909231657590979264 0.00048218339792703205195 -0.018038983094851756411 0.0082098730325737435259 0.025469526027935847357 0.025581825961881941162 -0.034950991657716000416 -0.011538055338851332596 0.024542696004361944095 0.053291560012520174106 -0.04383246563148699565 -0.029439485392139037867 0.040769880039308731279 0.041121166060056502101 -0.036586251612122429322 -0.040742489494000520833 0.028100196781121758449 0.032648585432984204846 -0.034174158725834048733 -0.022012318495008974251 0.013614011511587214079 -0.0038739481834687409557 0.0060588908753622912687 -0.011236649210221971371 -0.013391990713101599789 -0.011386053918548143943 0.018798729000893632524 0.010541620624004937809 0.021798411818251293287 -0.015040370046281571412 0.0034399039933363934063 -0.0056356407720699408861 -0.016780982086392320224 -0.013575474320531187231 0.020859245734339035977 0.014059515665802898784;0.041468966148984806597 0.028436174165284749255 0.010239014542622470669 0.0038410985802658581881 0.071177961791432292626 0.039179054051978509654 0.0014557365217007889151 -0.027827498927957019376 0.096375145269000095372 0.08018362752655615322 -0.024266251242680132033 -0.068307268115701674782 0.070566909337810554415 0.065477689055419160957 -0.02066580495540527862 -0.031393540000659303502 0.052602081245788072372 0.032111350409444204546 -0.0056651074171611198391 0.0049369291990980796597 0.0076127053920920107616 0.0058597506462500980814 0.04999297250948426391 0.020519824889327197698 0.038938195252828967929 -0.023247875778436087602 0.051971096816677803121 0.016323837146100177858 0.0045538680204157428594 -0.021829550443840720769 0.060363031308728096191 0.040897904551864712464 0.0078749602604936842082 0.011264055279597217155 0.028234823400766734941 0.036611414496297400856 -0.0025863593536796384079 0.022791236228301745004 0.018557356532947325706 0.045223020029591547153 0.053180360906284009082 0.030385862159803905813 0.0021779675516327189413 -0.0017589371805562309045 0.07462602894473566173 0.08455232089626425751 -0.03124795545235003677 -0.043945140951474871704 0.098895446294266595166 0.097586342179672685981 -0.0625789543406976706 -0.049917580696076102598 0.11060382640920390918 0.10759187678062194504 -0.069823394747510689196 -0.064387055005135501728 0.074268160687699827371 0.06951980151030086319 -0.025580991611608105279 -0.034221717149220884369 0.059646276012849670789 0.0073588741607609501824 -0.0013078178250625022237 0.018287921088636135275 0.00063036580333321041818 0.059803792602424264702 0.018685232640967115725 0.0048658623904346094344 0.10326756896734844149 -0.092865097717353295437 0.071136662990016072405 0.0024461191971641787178 -0.080801554844735321015 0.061021229999250178877 0.028896296598469612543 0.074869281684182678593 -0.016531609688139846381 0.033973690194795805319 0.016789798099836224232 0.049753374830665809958 -0.011793852255104727775 0.032789282619161197463 0.028184254033387593635 0.034805569039727438096 0.043800481755696979436 0.078149283159585566927 -0.012834133265808331248 -0.025130378212305067714 0.10875531817941171131 0.082374530657254765864 -0.054089300397127559883 -0.053055295002364361023 0.0999950342522050728 0.12189510388726161605 -0.07187046157979314065 -0.066034423122517837967 0.095751785508124812041 0.071479450676181360835 -0.053974441074010705288 -0.029271541673127586536 0.038856804859049569323 0.036844492994226471505 0.0066049200248971080482 0.0016790355589913731008 0.041764595448756589025 -0.010339917690157763089 0.043404800018156247665 0.0091557756604099659742 0.028303285287388419561 -0.041993043031814024368 0.067703655064471013336 0.029971356117131673497 0.052170673577177473224 -0.022734257001551971128 0.029270809907417955076 0.025278026954126588816 0.011598064372780648307 0.023667661826578725165 0.018406046466648832982 0.030313480771163411193 -0.011187129707393404787 0.051417767831707053561 0.0039318780817345529155 0.039822737231119682833 0.044455971594529554436 0.057415439808752063988 -0.020962532985309499656 0.0030763750191845099999 0.070619537229419881985 0.10291040703821864588 -0.045509123158110037499 -0.044035567672354884727 0.094345072407636926259 0.11641838655674531522 -0.056878109582055788596 -0.069900095945147372456 0.10039407624184619461 0.10385487717148556008 -0.068487480505240005968 -0.051776219470934775613 0.059848444941926454144 0.055470671169540040901 0.012617507195465244713 -0.043951369869767220599 0.014137499983495551911 0.043922527368436978246 0.019116687318846397464 0.0068085387663803596109 0.0048207716597843250014 -0.019860102859692203847 0.061388226136577579706 0.037636358500500302626 -0.014673184400163298904 -0.03586980531999595101 0.061094624139114046824 0.073433619018218460051 -0.030329101121170768535 -0.016969211935132517965 0.045196558992532179233 0.086087007500943640848 -0.022173938696165618883 -0.002333872666849807001 0.039079609882599494752 0.069413454917580968973 0.026553188387228247869 0.0036392324128999026939 0.014799824939329443707 0.038993007697712731008 0.067727182573100258578 0.046221034681202893823 -0.016511411750906767465 -0.013451552066231976801 0.098309380629007805941 0.087683407591665332714 -0.052079491941240126096 -0.049928042842261523282 0.10014463239787164961 0.091858827638842011076 -0.053151979733029208752 -0.054866226866507036841 0.07720658331260538132 0.076152320416969565553 -0.030387332239712617349 -0.038986318052694132752 0.03227316105418358283 0.041460092533499554035 0.003983679121469552685 0.0062683207280163268788 0.017915438793084506597 -0.021351041151202409391 0.064742819923513106328 0.022678035871778079446 0.018858633564705639535 -0.0045875457543056476217 0.054030732320825038129 0.015683433305939270541 0.015095642608625638864 -0.024945364129581294732 0.046472562289773269861 0.047362412668354191003;-0.023365830719303370966 -0.01609581578347796943 0.018926682506150104696 -0.0079483912995302729437 -0.038133586183848884599 -0.01957511852330586638 0.013265761522660965768 0.015959587888353804486 -0.049904888108991657392 -0.032610198471865713132 0.019007617015910516917 0.035024114268802038208 -0.039623824079352214234 -0.027587694175593344831 0.010839572551442163209 0.027888590407340638211 -0.022600540328030990084 -0.0084655966706187520815 -0.018493688013876501824 0.021076469716355576006 0.007299815772467355135 0.020337447862500579454 -0.040056794607823319188 -0.016063824323306656605 0.018107886490581481809 0.034632734842747932291 -0.04265823214876717645 -0.038565744480768632263 0.026654685469553501126 0.034320595759388707047 -0.046686840590942135787 -0.042771795934131585926 0.0213639654978953486 0.016558681650155733511 -0.019832099753422392785 -0.046573902690788801517 0.011072724184893986341 -0.0075680596646550630027 0.0042765551851487865198 -0.03626457500157950764 -0.018501247037462073552 -0.032148885181450960469 0.027875320155223263369 -0.0057085432324887738428 -0.048893541471798140918 -0.045637243875202432308 0.034883257604645112604 0.031164172446213781603 -0.062343497475618486758 -0.050383199834282209328 0.048674145473889776636 0.035569196539860382933 -0.055490839552330972761 -0.038206909980403130911 0.017423911578261945532 0.047790482658374995595 -0.038631362793661944144 -0.0079020709566348101838 -0.010787453838444045762 0.028837532292567177872 -0.0073114589648827403925 0.0061165460009381198564 -0.038656931415771242366 0.011368489083545317217 -0.0083397008878903118589 0.057415528096831702776 -0.061635322915866395943 -0.01592385958923099587 0.12000276561509365392 -0.035318783679329626701 -0.042765860455297115272 -0.070401476776659616119 0.0051404984535672604284 0.039737147503428014994 -0.037994467363217029887 -0.035366533889892082243 0.037855456695852433835 -0.020074467524385908312 -0.0017279605187920138616 -0.044536383948886690276 0.00084287641129102207176 -0.040359359518917968523 0.028326318137492759869 -0.017293190326035379201 -0.04208111205432241847 -0.038134846560289314965 0.037684630328998137971 0.01404797298949932334 -0.0333280049797426009 -0.085529040797279048958 0.05572620936312865092 0.034647481117771980474 -0.090107355788992787859 -0.028079095224178857865 0.033983468690214367613 0.055719627026806203829 -0.028041980037267728171 -0.039766877396616960583 0.0050483288674343833671 0.034277173270312703834 -0.033730039217529289575 0.012326208728250163255 -0.024293374760411230034 0.017213849953550512673 0.0075349274673428131774 0.02243895730842879882 -0.051376966774149539219 -0.0070802732977528126321 0.0075414057619313306854 0.046761515122066880934 -0.054153930320021283207 -0.028632345860136805549 0.019053142948063976625 0.036016850430481382739 -0.043981534514765052712 -0.039571814159912774289 0.024633444918571934662 0.0018033382098665694682 -0.019572226017379110163 -0.035347912407197458473 0.013270614250868357359 -0.0242689848686572264 0.012987814788007043601 -0.030472799466371554289 -0.008465230436483261664 -0.045045439883732718567 0.031992937842714667951 -0.0069656228186437355726 -0.042042088909741183456 -0.059692762930636383834 0.051188700837400270827 0.022062795706821253933 -0.046517928592028509605 -0.057529876469655308324 0.039469320785678066454 0.036095128979797427848 -0.046118292288736574547 -0.037699700460662240176 0.022582152652425833278 0.032752484800827867673 -0.023966729060810612606 -0.022110318777374845384 -0.010508351496548771695 0.028102044038590890535 -0.0053955927169358390907 0.015937259334119421861 -0.037272959493529954356 -0.0017520624197889234346 0.017453001490879912344 0.031465443774295630275 -0.052914947535183685934 -0.02448685302614404119 0.037247077650545447336 0.037544423192700189518 -0.056917558027095402351 -0.046357298112265792056 0.035214884256428040377 0.034403530987144249897 -0.049171315754625230521 -0.048930454785083246638 0.016824503198492341688 0.013520291534548997334 -0.015608586192048065633 -0.04321956383712047961 -0.0068320037125438578055 -0.018045550306950416952 0.0082820366488026205681 -0.011887837925447109627 -0.026488064766500358377 -0.041425720611964464424 0.033134858919078767625 0.0062955711632183032622 -0.035612601416155090228 -0.061842779685164946113 0.045205942429839642005 0.023766083375308673376 -0.043260941426964044654 -0.048876512298678467805 0.036629639453710158281 0.027024458975760702606 -0.033206288093653897608 -0.031413002508749995889 0.013089977888407959214 0.023045957417842814763 -0.021049672154251210937 0.0029836582958785266839 -0.023907068250270658433 0.013489726812475563017 -0.0041724711606639661512 0.023870582346938531287 -0.042804919503079637277 -0.0053765469793567487525 -0.013515191516180923709 0.02633439654978855099 -0.036264975395031498473 -0.0050375849347073483123 0.0090072307762757968658 0.008995607703195962479 -0.028689217131351769235 -0.017796976644263915596;-0.042862645440089587601 -0.024080927471385883687 -0.023008834905180457209 -0.014791403985335273286 -0.053226068525158404254 -0.042537205131529649826 -0.0020389742071215033632 -0.0069415639381839181268 -0.081138938342149524718 -0.071381869388253332831 0.0076597927253872497358 0.04011720320302609305 -0.067216920851294631456 -0.072346768844952696886 0.0013662331638691549082 0.033453644730386970785 -0.059526795329569129334 -0.045886820687300100552 -0.0098234867135553339407 0.010493290928430076478 -0.017005632840545584217 -0.023769749745334186469 -0.052967805445506992157 -0.011000623770606208357 -0.0182381361927434274 -0.0057797066229487324349 -0.041582206593331304256 -0.039143762392965852914 0.023646634374105669762 0.0041520583387549157492 -0.069928706055743819481 -0.062613798459113162442 -0.0016557804455701200051 0.0065402429169923005994 -0.048751242798193338002 -0.060877031475222560808 0.02155102603471795164 -0.0036954624181911818227 -0.066002553449813844422 -0.056596821968702741568 -0.031231100657864954706 -0.018259542153848333512 -0.035268849617647562988 -0.019984319372625538452 -0.052528429507179230651 -0.047923472049131631001 0.0013040327467046925435 -0.0055959429923868970677 -0.080070995785333443084 -0.069778883017828544078 0.069709511471666193994 -0.024603444470498749691 -0.098191313324271098373 -0.081869727535063843704 0.039472546460645317745 0.035844682596696368637 -0.079382368104284867227 -0.056927795851752234502 0.0031615748994835296548 0.028404777254559719635 -0.055058471376396390939 -0.031287687725584899245 0.0022693785785214723276 -0.020667031278533639499 -0.023811533701719112682 -0.026047458059007214809 -0.045284551317905798185 -0.0096002687233578704734 -0.022777488796607948257 -0.011493970376158992031 -0.045256179915038975692 -0.025216172714184581505 0.025339609361659014286 -0.020076481326667772881 -0.054523761742776066797 -0.055483178094204742281 0.0049605207112116715337 -0.0047693816910036497536 -0.042654220346695574662 -0.062280730475504322841 -0.014719402667874768864 -0.014877635586659054834 -0.01997532760745267949 -0.055171445940003671637 -0.041189727251819061027 -0.039410507047983905915 -0.0021380747496622738886 -0.022005502752521929888 -0.076583911255076825286 -0.060608467750186648115 0.0035338980736650681298 0.02891466912960271099 -0.06655178317111791475 -0.091783538230128511315 0.052513403708183088725 0.0010781058910704812825 -0.052160173758317891768 -0.047815816039981980101 0.011083513671452216443 -0.015851335675140965087 -0.05460853554247584174 -0.00010267106796115971017 -0.0320274203395647869 -0.018005184851990149036 -0.087538784112758935563 0.056249543612460949082 -0.049816647332125922609 -0.023637923969563160581 -0.20309550242100463113 0.21118430265595347639 -0.1164588460836031153 0.0036262340466619111951 -0.31779056123920540466 0.2328406012690669713 -0.090116718761836217544 0.070322866929986335705 -0.21208398023968855206 0.0094406822986152563737 0.021499077074789874064 0.076400409064287841399 -0.084178342327584101956 -0.094240342178876557178 0.06777701381999262642 0.0058978588844778769701 -0.034777700943746762963 -0.11609790734028598014 0.043852358307016114924 0.0022794381750288446667 -0.04464064382328873648 -0.13438031664214278305 0.03970602350346467968 0.034571125159977802999 -0.039943908390145943521 -0.096693062414104177793 0.0020846355261461813578 0.029808523476112475797 -0.069606365151526225499 -0.079787021988697817698 0.01580816997074557459 0.0288414053674866111 -0.054111550810036816717 -0.076854015546977821893 -0.031660299043761101767 0.05788205359879052686 -0.017722035598964406417 -0.043965223544942005907 -0.028778994193091801679 -0.01427755846499339891 -0.019642217160293913569 0.018104252047206902815 -0.056745184764092633511 -0.046460661924811151591 -0.0034722493540544352442 0.015881172213015940647 -0.054891712412084341099 -0.062261022248873629237 0.0071192204392132507271 0.031366390865995734394 -0.07220613988540175443 -0.071023283221799099474 -0.0018812665903195618239 0.014439032147922586588 -0.056779808116756202985 -0.060521769242835546376 -0.014280274604522767701 -0.0054590348440427287 -0.032393233169307776576 -0.05261126918412067921 -0.041042088992342538878 -0.027827161609245330831 -0.022386168919954031048 -0.013488392280452895372 -0.069406157117601757767 -0.080532135994824172176 0.038548271181308955968 0.0066462101291213911483 -0.0817603715232585182 -0.094100844467010197336 0.035265576398610068432 0.035851827789670574764 -0.064933245600120245711 -0.057567744311513929789 0.0075508927808370096546 0.010206285328805429768 -0.045599775998393474175 -0.041643577619531996215 -0.019319532756303364057 0.0018190745722355442741 -0.027826420171640185719 -0.01164339067026363278 -0.049503658478795939391 -0.01577034248129196084 -0.029124112728264650585 0.0017648813536315021647 -0.055815124967534192335 -0.021569455459822181598 -0.0180162140024691525 0.015617010573699267525 -0.060290531273749954633 -0.042054077099470683898;0.025868314196858262222 0.02637776786679851479 0.019855655055050137892 0.042345828450181054181 0.05467851766116279405 0.0083908532143549367788 0.053119952480826716779 -0.0017417577874535951962 0.069280460653715583708 0.082559061764655272686 -0.019312890630556994731 -0.018079066218919088993 0.041452321548620239822 0.047002749693052840729 0.013440864063783263677 0.01255163026343652892 0.088728527538228796345 -0.010291456667236362557 0.0049259489773602902277 0.031084545720541534308 0.1314196197839303526 -0.070706276835310569173 0.051561961736541289669 0.0021722608837302058438 0.26764500378570671435 -0.18193991478742752022 0.081666621327229529936 -0.052924144756616921248 0.24564188111029319761 -0.050048743738144323145 0.034244565313499363002 -0.11539013711675759344 0.17229571552062544759 0.10298792184954069784 -0.072320868961176190681 -0.088515202840098644588 0.073017062698795251463 0.15503122654537587755 -0.10397882642683635435 -0.0096218972484387720739 0.033738957825935944612 0.14877121893941919195 -0.060155828538424591101 -0.0079067826580339495984 0.064857895385758382312 0.13103386595913649182 -0.064676278779898593863 -0.016767916996103658656 0.075885195260303670017 0.096696434919519458351 -0.039078072318433798582 -0.019055992292495875506 0.078816407900581461621 0.075472480289618129601 0.0088029913197274975434 -0.048644313941032003845 0.075760655938838059043 0.053028046480291753106 0.016423526558142734211 -0.03076466340837601815 0.055257224101760642199 0.017919544513582900958 0.026369825404487401421 0.014900971549063980748 0.014756983005518906071 0.032783077090829407241 0.055664496092043456998 0.011243009380500783648 0.015217536941938175285 -0.01957225370560394806 0.05487856201985272242 0.063923720312708778857 -0.019707703302307460341 0.003312104815116496178 0.060344094618457626289 0.070499069437628153478 -0.0021713804507831704384 0.011679768542584690813 0.041844507484466081371 0.063094669992628540922 0.0040960918115854503749 0.0042857243706049168511 0.049254334524965429076 0.056811414861736464488 0.069568742927279131338 0.049433735617384719219 -0.015734655906619744725 0.011179742930850035398 0.081806982748550152729 0.097995767608367825852 -0.061413431667795503888 -0.0039417531202305964091 0.089658619196991459765 0.1034067740085975462 -0.014492249844904330977 -0.064125577791792787163 0.07944501569135291319 0.090169151448051973463 -0.040495517788014072369 -0.014671083782492757783 0.033194757965487334261 0.062299722981623187334 0.0067415274949359019208 0.012211557126848860896 0.03694382688845315732 0.01763896407897796309 0.05004417887244324431 0.0098205957290197400805 0.020333174590038669699 -0.0051395249519002881092 0.060273759437128628103 0.038980156493630131742 0.024742116658834037435 -0.033044035392110947258 0.039423616589021229228 0.083325867713147525051 -0.016125396686571362437 -0.0059860415541052869326 0.055766012201084708133 0.080792991608482994659 -0.014988569487922015488 0.018698613969045031064 0.050533480139545790266 0.060204040948223756791 0.04732745934213169331 0.027920904310220279881 4.4588035194363225748e-05 0.039154613881347402615 0.069953611482877250949 0.074093715707751472976 -0.022200932878624540789 -0.0073988287431122406676 0.076355722128762723577 0.089593688763747444948 -0.031414419710159721677 -0.020087425613457061957 0.094899632799283165085 0.096375862059991448949 -0.057267482846828338117 -0.019560446443551732232 0.085549643987776785581 0.054989547305951076706 0.014161631761840562035 -0.040253257486672348875 0.051697038054070602875 0.053293861078135829068 -0.018235080277867764253 0.0276917467145599977 0.0153605750552659754 0.041540010707240920818 0.055402167335466316611 0.0021448124709199669312 -0.019277170033641311681 0.021497727089862531807 0.051955971953109802985 0.060271036559554215517 -0.018014866372531336547 0.015419040166943108819 0.04886637380194112229 0.068177017972539277757 -0.032492995054683219969 0.0052884802164413508702 0.062821411820079178789 0.078830668587050539697 0.016982624573556429765 -0.0017754635398536413021 0.057957142126341884558 0.041283262408851072178 0.066743333078808059211 0.029816475063299024278 0.01503517396483169434 0.0028525834619520240576 0.074134557851211868584 0.068618437989304184588 -0.012223079944689192733 -0.016082350326938114199 0.094745110503070273378 0.083333369181668934256 -0.051277106649329814991 -0.012353807466519985472 0.092492221411175634671 0.079215011183783476389 -0.0062906421396041632341 -0.050969024886459213253 0.056885089935004226613 0.041482878998406885751 0.010972628685368898682 0.0051069679501132610872 0.031937973113463115349 0.016249709224622880394 0.059536939551700085449 0.0067229436791051049374 0.0054219419863458665279 0.017216831903784382551 0.072808990438530188372 0.018999801240231057459 0.0087772666869463129152 -0.0033827884050449215023 0.045469414443423880612 0.063583672843565600119;0.041938890868742584317 0.033734218420918150871 0.01365314728935587002 0.018586779910619667666 0.05917268871721913237 0.043018858560925667123 0.012116145983989891344 -0.0063946567725011111208 0.064331496780844321659 0.07029475897665778128 -0.0062768243646813869432 -0.020436394903185457067 0.062225034513587122731 0.056790068448747337004 -0.0017354002253533193454 -0.0093666662473446266057 0.046171913127629034268 0.044718468766635571798 0.019981145017694483534 -0.0029584904223281371233 0.0092468338576587663646 0.0070771308521540825937 0.049086416110613713404 0.042502655669209014888 0.011025850711004113458 -0.0017675025430598666123 0.048332100104005799868 0.050322588217685162992 -0.012330437472417585601 -0.0014536983894355317952 0.074056431034672312586 0.047640741316815053696 -0.00021275846215721555803 -0.0064840178468496762268 0.049581281855140352244 0.065028530943496837269 0.007273052464177072983 0.010823041491352516225 0.031572832549229351562 0.058244109984874267716 0.056995761267497335734 0.029132108937081055422 0.0045976758364783126831 0.017187490448579333113 0.056657506152501861674 0.066079564432380707983 -0.0089567252339810797535 -0.0058673088612668121075 0.069915836953403573406 0.080155741013268527739 -0.041699129139842305847 -0.00045941233719086851418 0.10033716616936029509 0.077921222493833153244 -0.0020367114148964345598 -0.068308640758661443027 0.06722214174447922741 0.064623693706140128423 -0.010996893111220889042 -0.012935905849760606645 0.04064273287492244785 0.042312928762880099021 0.012154824804694522658 0.012802550047136708813 0.020639241160559363558 0.027228081491193222713 0.042736628742130952641 0.017309085095744646682 0.006992340792704415664 -0.012652675139650336814 0.076985827040396248577 0.036587543796181891398 -0.006366896939048172048 -0.0020098835105340270152 0.050949489059014918535 0.06534032788020364968 -0.003514750949640088433 0.016526154776585161993 0.037076671792438731234 0.057824960870247979483 0.022266367497612904458 0.024384254022820850416 0.029948442385240723468 0.031313972583953499085 0.05555136138568090437 0.06199785222054266659 -0.0070827468973345504219 -0.0025534302192547295857 0.049690920131457240461 0.091151898714556187087 -0.037338711595856687031 0.0044089292394799105279 0.11317446134068206987 0.047680357598288654331 -0.036181988583789848057 -0.016759793865543947539 0.082663714879538538471 0.05748227659610576773 -0.023963475400851828867 -0.0082694795851554828148 0.1172937301960370049 0.0060559637343079453231 0.0071257873991691644822 -0.022562444839879500225 0.14566410919674788182 0.018680899630589900551 0.0087167133607136855489 -0.06514868569841231194 0.12676532988725403017 0.065541182284626769983 0.0013669605777738454404 -0.085760436260016725818 0.021120542238307921101 0.18964482171806451571 -0.070560192987701289558 -0.032292134479037136463 -0.14695157996608135265 0.29242516487449304874 -0.042455732723097001913 0.004895184304319256767 -0.17879431316952879016 0.23578186420569735571 -0.038732705607037273832 0.089658191060502837044 -0.064247951338713707448 0.12613074784577202325 0.011420904863043833399 0.034609335119532791403 0.028236780488508750331 0.08716229862010314855 0.004856702073971339538 -0.012342744692946898757 0.051671111634749064545 0.079147141631099995895 -0.012432502456040659886 -0.010472714320175052424 0.071423616784981699968 0.066398234005602491115 -0.00085938020874948587921 -0.029049434092199812735 0.046814638001078837104 0.061584668531460884378 0.029192495455235868695 -0.02967876549814159326 0.034922786597979871281 0.035016067206499322528 0.024530533636891730526 0.013443649048258924858 0.043643362379521981331 0.0086937330675333785585 0.03207139609632978644 0.023504544946250642556 0.014660853746982140805 -0.014470998432336828338 0.056056252870580969283 0.051666928304411045836 0.0093202466237766613127 -0.0084546788489982104692 0.045426263567543354038 0.061621205147314464523 -0.012404677832223348632 0.022406166204092331506 0.023396576939502700121 0.074514971178267719321 0.017533256997639249525 0.020780779272019961335 0.029252189632356838389 0.040346810587615140886 0.042157625981576150875 0.044266119711026494232 -0.0021526528958070076901 0.023641943692835388352 0.046811200441765850322 0.075726015625357204208 -0.017348541873863556478 0.0027243622963729389151 0.067084448624585096832 0.070992354026481227502 -0.031628299360543309093 0.0014645331991089652768 0.070964250006044046759 0.069746616478667380901 -0.02861161519561265798 -0.0041862147994635549864 0.049602512066580159433 0.042948592680388801568 0.021861808291513174646 -0.0064998765488453727132 0.015908854987779649792 -0.0004450150519770701028 0.074398759345073908755 0.018050437208757572766 0.027870162677939947643 -0.0033874263491330239458 0.062337329725441037453 0.021092970435390760719 0.020141232605555569463 -0.0040997136974000513918 0.058521096016048580746 0.033350421565430901638;-0.046421977371610877172 -0.0209543139470607237 -0.01673805101754458069 -0.016978831453790123318 -0.055650265521783100209 -0.031066830446818318595 -0.0054052585396026373368 -0.0089708192817949620329 -0.0566682000131622024 -0.067695999657854541431 0.0024253598782507219088 0.020845666002763489633 -0.077033690546935693066 -0.049123897891670743887 0.002085801393809834977 0.022978613254792307208 -0.053022771796659387555 -0.032446372817117812015 -0.0025552591207383861319 -0.013068770055480341194 -0.013396449735665659844 -0.011675975752990513587 -0.049245382009683875968 -0.026775366291664486063 -0.02153273102488016677 -0.013498491529764816699 -0.040840184657006339819 -0.02522176657834940966 0.01040017623548973244 0.0022767272129181489147 -0.062516646744227952204 -0.051253430494184452904 -0.0010592547123821759603 -0.01095965251010411548 -0.042714596030593979248 -0.046359670536913345773 0.00072646478686003840546 -0.01200110560986856513 -0.026847213651475569651 -0.062971319315528268001 -0.030410398035062645439 -0.0034713174918337783709 -0.030048581556515841645 -0.037162876706596355281 -0.06256595187718808071 -0.059678181317674723616 0.012245857467729832913 0.0089051019371306286421 -0.082320759419654707112 -0.072438665021935841337 0.022576323384623901008 0.031089927266957504554 -0.08851531089243921957 -0.069083039251234906741 0.045907299539466928096 0.010597876814205414026 -0.11365274541282853471 -0.027290321502121666492 0.012340668167439500583 0.027509224957500754555 -0.14880333387109917487 -0.008144090356584855056 0.013175754081644232632 0.042678496356029382852 -0.15161139556749006485 -0.057036677353672814161 0.015791093267407407819 0.091763805863749769998 -0.13204163254754852641 -0.085715093999434416316 0.014974569663533459155 0.10168898309345258957 -0.032449436458477795564 -0.19673998928973729372 0.094616897401509234 0.033479354556702159429 0.071820183295108183663 -0.25766602546709710397 0.11576435530263530505 -0.031011686920648488114 0.11482817954724278131 -0.18492305320990054529 0.018784242698791385473 -0.049782542826141605585 0.0035603482902426038942 -0.10721134663995911251 -0.012633142234745360286 0.015190966794449586169 -0.035622343145432402989 -0.10380588394698980759 0.02691068846590977115 0.011424364836512186996 -0.092566786236340833915 -0.064890308777451430333 0.00073145876754078325253 0.055632462456246541127 -0.061542315841988014247 -0.062261481243888840142 0.0034078120165469297058 0.019302811279322658333 -0.047723382387030707785 -0.02755112287952291017 -0.030018649064962012879 0.0041999805415125031002 0.001195400494789160056 -0.024535125951723371629 -0.050264707610711244212 -0.027488740722361643815 0.0099697344166995612025 0.010159140902653442107 -0.072649921478716239509 -0.04857212763064162192 -0.0011766992673966590859 0.00049287196056685411705 -0.041238519604598997126 -0.059170826878573126728 0.012558790917499455114 -0.016407535282120119802 -0.043316684668378818701 -0.053927744757008871934 -0.012687802800971354975 -0.024014185112862580784 -0.020395235702298415009 -0.043995950173873456246 -0.041806243276516275031 -0.047922991508276058248 0.01627741954974014707 -0.027641358554949823495 -0.064806012976628579736 -0.077378805949909867934 0.025011624087151483609 0.016080021049381880427 -0.077931471875114705083 -0.10061316395976493965 0.049575358716099401923 0.02787610332877675165 -0.078148832962269598745 -0.068683158630498439279 0.034717847719359908043 0.011020970083401918777 -0.049838881208874100115 -0.063222753599535552738 -0.01215746085133801585 0.024125921869744413467 -0.00726594958782792507 -0.055113846732068212664 -0.020259421753561344948 -0.018453955716546649457 0.013457235532074394643 -0.023196278952402265422 -0.054841173867031661748 -0.036512956502647977985 0.034989104105961787994 0.017636188029074097855 -0.074209712472983982434 -0.079508753452059627298 0.041901597794749056991 0.016206464020926979186 -0.064791030753281464438 -0.094410204852401313769 0.029308351676217276466 0.021395739118683199109 -0.054295559158076989181 -0.097501705426826248968 -0.035132089918686403018 0.0069325553124706942518 -0.027002409131459473302 -0.045891230052330561628 -0.064910526484366862232 -0.025301771925451150419 -0.0108443948344269913 -3.6480545759107661731e-05 -0.082392756802667443949 -0.070000647836322524298 0.034656161905604547513 0.016644068943381194053 -0.080099348149680379971 -0.064499522923727375945 0.023092346066009489247 0.020413351217392392001 -0.062298728788505106091 -0.077316491804290204959 0.017597369343833220434 0.020924677458961170318 -0.034753133433215913084 -0.043213096399725405006 -0.017795310731111187164 -0.0053316332259535602345 -0.033882388937814714169 0.017489504711387039021 -0.065519567779756010539 -0.019180721783817980541 -0.026544883475824305324 0.0027544097774534902386 -0.039590296597518108423 -0.037712403494119424441 -0.010826143001315317524 -0.017536973255502723984 -0.042621036247174400036 -0.030109021286007457002];

% Layer 2
b2 = 0.13101866666626157953;
LW2_1 = [-0.36099039445381381208 -0.6557575340975589917 -0.53031648429851052651 -0.3335349910415517094 0.63904262299512593071 -0.76702943776292620282 0.51560669078122634001 -0.45523894522731178647 -0.5231892704461326149 0.45929854123974600544];

% Output 1
y1_step1.ymin = -1;
y1_step1.gain = 0.47088459101167;
y1_step1.xoffset = -2.04182913430642;

% ===== SIMULATION ========

% Dimensions
Q = size(x1,1); % samples

% Input 1
x1 = x1';
xp1 = mapminmax_apply(x1,x1_step1);

% Layer 1
a1 = tansig_apply(repmat(b1,1,Q) + IW1_1*xp1);

% Layer 2
a2 = repmat(b2,1,Q) + LW2_1*a1;

% Output 1
y1 = mapminmax_reverse(a2,y1_step1);
y1 = y1';
end

% ===== MODULE FUNCTIONS ========

% Map Minimum and Maximum Input Processing Function
function y = mapminmax_apply(x,settings)
y = bsxfun(@minus,x,settings.xoffset);
y = bsxfun(@times,y,settings.gain);
y = bsxfun(@plus,y,settings.ymin);
end

% Sigmoid Symmetric Transfer Function
function a = tansig_apply(n,~)
a = 2 ./ (1 + exp(-2*n)) - 1;
end

% Map Minimum and Maximum Output Reverse-Processing Function
function x = mapminmax_reverse(y,settings)
x = bsxfun(@minus,y,settings.ymin);
x = bsxfun(@rdivide,x,settings.gain);
x = bsxfun(@plus,x,settings.xoffset);
end